tree
num_class=1
num_tree_per_iteration=1
label_index=0
max_feature_idx=3
objective=regression
feature_names=Column_0 Column_1 Column_2 Column_3
feature_infos=[2416:128710] [2415:128709] [2417:128711] [2414:128708]

Tree=0
num_leaves=31
num_cat=0
split_feature=0 3 3 0 0 0 1 1 0 1 1 0 0 0 1 0 1 2 1 1 1 2 0 0 0 1 1 1 1 1
split_gain=8260.0513616892113 88.847217636027835 13.190387542336566 8.3687897433464968 8.4542312822434269 6.7433992093619963 12.331129137739595 9.547505389738717 5.2352270199254463 18.180603005956982 5.0029753092659917 4.0356562313831432 3.8417002464341294 3.5586157465533006 1.9614573955974492 8.8781305796572667 1.6298620299141362 2.1287742404540211 1.5396120903075143 1.4240753591436146 1.3713065137945364 1.244696405864687 1.0130150295576641 0.80526822248526742 0.74618586927615738 0.70255085315568522 1.1123812835692632 1.0755387708730382 0.65378159143210723 0.62480057017091895
threshold=65571.500000000015 2418.5000000000005 2417.5000000000005 2442.5000000000005 2452.5000000000005 2426.5000000000005 2422.5000000000005 2432.5000000000005 2447.5000000000005 2443.5000000000005 2418.5000000000005 2446.5000000000005 2432.5000000000005 2454.5000000000005 2420.5000000000005 2422.5000000000005 2417.5000000000005 2420.5000000000005 2424.5000000000005 2442.5000000000005 2449.5000000000005 2421.5000000000005 2445.5000000000005 2425.5000000000005 2419.5000000000005 2436.5000000000005 2433.5000000000005 2437.5000000000005 2431.5000000000005 2445.5000000000005
decision_type=2 2 2 2 2 2 2 2 2 2 2 2 2 2 2 2 2 2 2 2 2 2 2 2 2 2 2 2 2 2
left_child=1 2 10 5 8 6 14 12 9 19 16 22 -7 -6 15 -3 17 -1 23 -5 -10 -18 -11 -8 -19 26 -9 -27 -14 -13
right_child=-2 3 -4 4 13 7 18 25 20 11 -12 29 28 -15 -16 -17 21 24 -20 -21 -22 -23 -24 -25 -26 27 -28 -29 -30 -31
leaf_value=0.23935236433810339 0.18904850962448821 0.22724475830733021 0.23121838910959192 0.22185398008665094 0.22931364901456316 0.2276513499564701 0.22335336165673222 0.22622570244143614 0.2215079232640591 0.22836119725446918 0.27606409401054122 0.22211754935232803 0.2395812912420382 0.24441151348553275 0.22567385058421063 0.25560521332681541 0.23588222004777773 0.26354053094202251 0.22179169734022591 0.22373061120625243 0.22356993383724785 0.24732188962121793 0.23089706847570568 0.22602645433110127 0.24590404062664997 0.22755094862408168 0.22294017393620505 0.22514171351162701 0.23250642274831751 0.22572005980179638
leaf_count=2399 107047 7637 5217 10493 1519 20857 12073 1537 10207 3561 35 620 148 174 14087 112 2422 47 7248 6579 4715 99 2825 1243 49 2058 3127 18599 1112 2154
internal_value=0 0.15729393452339266 0.24691152508574499 0.15035876159582562 0.13885896280298818 0.15584343265792303 0.14667933613306336 0.16403428582740845 0.1360099178284164 0.14451658711216789 0.28333719786515565 0.18045698693693807 0.17921384251547989 0.20811448370288602 0.16322886937018335 0.17600764732050311 0.28070825738440358 0.29882782396313573 0.12910612042766789 0.12523272685004891 0.12105569261387621 0.26277556455856593 0.19429099794070681 0.13548984377921464 0.44484671158716083 0.15077547870011979 0.1396900419076732 0.15327838218077869 0.23283538178666421 0.14860983687563051
internal_count=250000 142953 10268 132685 42847 89838 42400 47438 41154 26232 5051 9160 22117 1693 21836 7749 5016 2495 20564 17072 14922 2521 6386 13316 96 25321 4664 20657 1260 2774
shrinkage=1


Tree=1
num_leaves=31
num_cat=0
split_feature=0 3 3 0 0 0 3 1 0 1 1 0 0 0 2 1 1 1 2 0 1 2 0 1 0 1 0 0 1 0
split_gain=6690.6415530485083 71.966247212095368 10.684213009015991 6.7787197012448814 6.8479284706058934 5.4621537960285877 10.108514459508228 7.7334812830561077 4.2405333357027075 14.726288758773705 4.052410351796766 3.2688812507227567 3.1117767880919018 2.882478644547156 2.3396971469762775 5.8876008941921043 2.1168177286508012 1.320188551222202 1.7243074567316512 1.1981663429750427 1.153501135971311 1.0082039116081773 0.82054233290591583 0.71391096481119121 0.60441069769840183 0.57256833760726522 0.68947617422635687 0.65226701684315458 0.56906613810207318 0.90955408333078935
threshold=65571.500000000015 2418.5000000000005 2417.5000000000005 2442.5000000000005 2452.5000000000005 2426.5000000000005 2420.5000000000005 2432.5000000000005 2447.5000000000005 2443.5000000000005 2418.5000000000005 2446.5000000000005 2432.5000000000005 2454.5000000000005 2423.5000000000005 2420.5000000000005 2424.5000000000005 2417.5000000000005 2420.5000000000005 2451.5000000000005 2442.5000000000005 2421.5000000000005 2445.5000000000005 2420.5000000000005 2419.5000000000005 2422.5000000000005 2423.5000000000005 2425.5000000000005 2436.5000000000005 2434.5000000000005
decision_type=2 2 2 2 2 2 2 2 2 2 2 2 2 2 2 2 2 2 2 2 2 2 2 2 2 2 2 2 2 2
left_child=1 2 10 5 8 6 14 12 9 20 17 22 -7 -6 23 -16 25 18 -1 -10 -5 -19 -11 -3 -20 26 -8 -27 29 -9
right_child=-2 3 -4 4 13 7 16 28 19 11 -12 -13 -14 -15 15 -17 -18 21 24 -21 -22 -23 -24 -25 -26 27 -28 -29 -30 -31
leaf_value=0.026368617504277655 -0.018904851658714583 0.015471771669910135 0.019048039940207259 0.010620071512385721 0.017333774206153781 0.015837704731130414 0.01293502285765454 0.014795980394688229 0.010537512506483354 0.016476566890608762 0.059409175548945634 0.013374885633837395 0.020955184574746391 0.030921851970375454 0.040996182236497467 0.017192964001521146 0.010564017270300534 0.023245487350344925 0.048137969686149452 0.013141034306054568 0.012309039589624564 0.033541189061959832 0.018758851210795881 0.014039887788632556 0.032265126516925799 0.011969515334673199 0.015985582179273539 0.014375298292789903 0.013795054494863422 0.011695185199043393
leaf_count=2399 107047 7637 5217 10493 1519 20857 5389 1319 12873 3561 35 2774 1260 174 112 1439 7248 2422 47 2049 6579 99 2825 6400 49 12073 859 1243 20657 3345
internal_value=0 0.14156454132779589 0.2222203733533295 0.13532288565278983 0.12497306673226302 0.1402590896120032 0.13201140241011988 0.14763085775905521 0.12240892604321726 0.13006492790170485 0.25500347747360885 0.16241128809977526 0.16129246047188511 0.18730304069386336 0.15226164111002435 0.1891182925312192 0.12023828884700968 0.25263743093837926 0.26894504275529429 0.10895012422363233 0.11270945347490512 0.23649800551862399 0.17486189743813196 0.14818921350054418 0.40036205388605595 0.12564654672992034 0.13354425740807693 0.12194086211613825 0.13569792986522564 0.12572103721622016
internal_count=250000 142953 10268 132685 42847 89838 42400 47438 41154 26232 5051 9160 22117 1693 15588 1551 26812 5016 2495 14922 17072 2521 6386 14037 96 19564 6248 13316 25321 4664
shrinkage=0.1


Tree=2
num_leaves=31
num_cat=0
split_feature=0 3 3 0 0 0 3 1 0 1 1 0 0 0 2 1 1 1 2 1 1 2 0 1 1 0 1 0 1 0
split_gain=5419.4196848116953 58.292657305164539 8.6542141120261817 5.490763642979573 5.5468221545530696 4.4243436565404863 8.1878976625191626 6.2641174659329408 3.4348325660778301 11.928295733666289 3.2824519962573504 2.6477941520323895 2.520539463783166 2.334808133658818 1.8951547353110527 4.7689569197536557 1.7146223232650186 1.0693526189492673 1.3966887741022163 0.97945015043833905 0.93433626912693057 0.8166453499112265 0.66463911709996637 0.57826788109565541 0.52956321200683476 0.50629902673790639 1.1533612820198869 0.67590339081453976 1.4081899650697665 1.5715618674234122
threshold=65571.500000000015 2418.5000000000005 2417.5000000000005 2442.5000000000005 2452.5000000000005 2426.5000000000005 2420.5000000000005 2432.5000000000005 2447.5000000000005 2443.5000000000005 2418.5000000000005 2446.5000000000005 2432.5000000000005 2454.5000000000005 2423.5000000000005 2420.5000000000005 2424.5000000000005 2417.5000000000005 2420.5000000000005 2449.5000000000005 2442.5000000000005 2421.5000000000005 2445.5000000000005 2420.5000000000005 2431.5000000000005 2431.5000000000005 2429.5000000000005 2429.5000000000005 2427.5000000000005 2428.5000000000005
decision_type=2 2 2 2 2 2 2 2 2 2 2 2 2 2 2 2 2 2 2 2 2 2 2 2 2 2 2 2 2 2
left_child=1 2 10 5 8 6 14 12 9 20 17 22 25 -6 23 -16 -8 18 -1 -10 -5 -19 -11 -3 -14 26 27 28 29 -7
right_child=-2 3 -4 4 13 7 16 -9 19 11 -12 -13 24 -15 15 -17 -18 21 -20 -21 -22 -23 -24 -25 -26 -27 -28 -29 -30 -31
leaf_value=0.023731755747969645 -0.017014366641854739 0.013924594647572326 0.017143235428124508 0.0095580640667052349 0.015600396597311147 0.014308008342952854 0.011308189351031285 0.012212813970995674 0.0092548689604061447 0.014828910551009543 0.053468256197396744 0.012037397065130271 0.024479133638066187 0.027829667715365356 0.036896564609975181 0.015473667759482492 0.0095076155395007241 0.020920938670785438 0.036032584210101519 0.010997537484227684 0.01107813562010625 0.030187071240989849 0.016882966172540644 0.012635899154869781 0.018111751254571148 0.015864912287089396 0.012055576875318214 0.015819426371318789 0.011972515881519846 0.01954194186125268
leaf_count=2399 107047 7637 5217 10493 1519 10759 19564 25321 10207 3561 35 2774 148 174 112 1439 7248 2422 96 4715 6579 99 2825 6400 1112 1784 2404 2788 2516 606
internal_value=0 0.12740808644178758 0.19999833343631354 0.12179059647577942 0.1124757588662937 0.12623318031617695 0.11881026260476986 0.13286777096004182 0.11016803222673108 0.11705843446523165 0.2295031298289156 0.14617016088766308 0.14516321107234698 0.16857273590383662 0.13703547849232645 0.17020646517625038 0.10821445978307688 0.22737368807328998 0.24205053797051632 0.098055109594352902 0.1014385062770011 0.21284820592589618 0.15737571000940132 0.13337029359906108 0.1885966572969679 0.14253933696566709 0.1410325024961317 0.14398565338920546 0.14113185330195155 0.14587089842446146
internal_count=250000 142953 10268 132685 42847 89838 42400 47438 41154 26232 5051 9160 22117 1693 15588 1551 26812 5016 2495 14922 17072 2521 6386 14037 1260 20857 19073 16669 13881 11365
shrinkage=0.1


Tree=3
num_leaves=31
num_cat=0
split_feature=0 3 3 0 0 0 1 0 0 1 1 0 0 1 0 1 1 0 1 1 2 0 1 1 2 0 1 0 1 0
split_gain=4389.7298601695384 47.217053612851032 7.0099129477923725 4.4475175350835343 4.4929250413752015 3.5837188952796168 6.77607621344373 5.1263782559846049 2.7822138437030617 9.6619165640954634 2.6587864883964301 2.1447126423837801 1.8911945570128523 1.1639554322660501 1.0307857215426566 1.0015254511047971 0.99738082016222052 4.7182026349514246 0.93422260844880611 0.86617587627569037 1.1313177767458171 0.85942763755170404 0.77739969543742404 0.75681169930302872 0.68299275437027518 0.54748151306762338 1.1406341437943013 1.2729650106289228 0.54054201246998446 0.53644826093834297
threshold=65571.500000000015 2418.5000000000005 2417.5000000000005 2442.5000000000005 2452.5000000000005 2426.5000000000005 2422.5000000000005 2434.5000000000005 2447.5000000000005 2443.5000000000005 2418.5000000000005 2446.5000000000005 2454.5000000000005 2434.5000000000005 2431.5000000000005 2432.5000000000005 2420.5000000000005 2422.5000000000005 2429.5000000000005 2417.5000000000005 2420.5000000000005 2451.5000000000005 2424.5000000000005 2442.5000000000005 2422.5000000000005 2429.5000000000005 2427.5000000000005 2428.5000000000005 2444.5000000000005 2432.5000000000005
decision_type=2 2 2 2 2 2 2 2 2 2 2 2 2 2 2 2 2 2 2 2 2 2 2 2 2 2 2 2 2 2
left_child=1 2 10 5 8 6 16 14 9 23 19 28 -6 -9 18 29 17 -3 25 20 -1 -10 -8 -5 -21 26 27 -7 -11 -16
right_child=-2 3 -4 4 12 7 22 13 21 11 -12 -13 -14 -15 15 -17 -18 -19 -20 24 -22 -23 -24 -25 -26 -27 -28 -29 -30 -31
leaf_value=0.021358580410129939 -0.015312929679646037 0.012532135555984035 0.015428912096783941 0.0086022582040394587 0.014040356568635807 0.012877207657504459 0.0098438584014055516 0.008174425332899575 0.0085221836967257995 0.013477297913750162 0.048121432527580485 0.010833657381339847 0.025046700483948147 0.011106816174508776 0.014278421187700651 0.012095101041986928 0.011418469259414471 0.033206907356262062 0.010850019254775021 0.018897148194394121 0.032429325388622657 0.010727177220738624 0.0085568540906089726 0.0099703219886778799 0.029608937122329617 0.014237483494643958 0.010775264151496171 0.017587747635281096 0.015396776682952871 0.016973699109421665
leaf_count=2399 107047 7637 5217 10493 1519 10759 13316 1440 12873 4102 35 2774 174 22562 1784 1319 14087 112 2404 2460 96 2049 7248 6579 61 2788 2516 606 2284 1260
internal_value=0 0.11466727819951711 0.17999850132177542 0.10961153716609699 0.10122818427486056 0.11360986216588334 0.1069292357283692 0.11958099418980088 0.099151230508157898 0.10535259192677016 0.20655281716038582 0.13155314166623847 0.1517154585305498 0.10930887221861793 0.13010119693567618 0.14396745728884566 0.11919722725950851 0.12830957721431452 0.12692925262062985 0.20463631944645702 0.21784548629777514 0.088249601186817808 0.093902399360252187 0.091294658725415326 0.19156338359003547 0.12958708838173963 0.12701866885090604 0.13128380996986996 0.1416381344163104 0.1539407476296562
internal_count=250000 142953 10268 132685 42847 89838 42400 47438 41154 26232 5051 9160 1693 24002 23436 4363 21836 7749 19073 5016 2495 14922 20564 17072 2521 16669 13881 11365 6386 3044
shrinkage=0.1


Tree=4
num_leaves=31
num_cat=0
split_feature=0 3 3 0 0 0 3 0 0 1 1 0 0 2 1 1 1 0 1 1 0 1 2 1 2 1 1 1 0 0
split_gain=3555.6808737416213 38.245812115986155 5.6780302492584269 3.6024892590901345 3.639269046554034 2.9028125153597557 5.5278935194939436 4.1523662943915269 2.2535933264496748 7.8261526674800166 2.1536170941228647 1.7372176160772597 1.5318676687124437 1.4467882645596148 3.0391261412075217 1.0989887627254689 0.94280416075218909 0.83493637639776352 0.81123576064479153 0.75672004451573116 0.75399921359591815 0.70160227099768235 0.9163674052794164 0.61301766564359639 0.56092187920434355 0.54194733907446846 0.50608838225716823 0.49866354502469079 0.48957254069463652 0.48031834671407836
threshold=65571.500000000015 2418.5000000000005 2417.5000000000005 2442.5000000000005 2452.5000000000005 2426.5000000000005 2420.5000000000005 2434.5000000000005 2447.5000000000005 2443.5000000000005 2418.5000000000005 2446.5000000000005 2454.5000000000005 2423.5000000000005 2420.5000000000005 2424.5000000000005 2434.5000000000005 2431.5000000000005 2432.5000000000005 2429.5000000000005 2449.5000000000005 2417.5000000000005 2420.5000000000005 2442.5000000000005 2421.5000000000005 2448.5000000000005 2445.5000000000005 2441.5000000000005 2419.5000000000005 2451.5000000000005
decision_type=2 2 2 2 2 2 2 2 2 2 2 2 2 2 2 2 2 2 2 2 2 2 2 2 2 2 2 2 2 2
left_child=1 2 10 5 8 6 13 17 9 23 21 -11 -6 -3 -15 -8 -9 19 -19 -7 -10 22 -1 27 -23 -22 -13 -5 -24 -27
right_child=-2 3 -4 4 12 7 15 16 20 11 -12 26 -14 14 -16 -17 -18 18 -20 -21 25 24 28 -25 -26 29 -28 -29 -30 -31
leaf_value=0.019222722248171575 -0.013781635668600134 0.010800889220423064 0.013886020613489038 0.0094221528015219682 0.012636320722326407 0.011662838097376333 0.0091426973496529732 0.0073569824793888565 0.0070537614272630396 0.012747432427657853 0.0433092895377215 0.0072326900864805371 0.022542030496785118 0.029886216192606861 0.012784454115255648 0.0077011685668981538 0.0099961346016037862 0.013854667531807323 0.010885590710672664 0.0097650176350045099 0.011611138370593977 0.01693913000274222 0.036477979166223966 0.0089732898906771837 0.024618630145045294 0.0078992255569501815 0.010474949236083018 0.0074591749059310739 0.022192422129496223 0.0096544590145548493
leaf_count=2399 107047 14037 5217 1512 1519 16669 19564 1440 5822 6386 35 620 174 112 1439 7248 22562 3044 1319 2404 531 2422 47 6579 99 6520 2154 8981 49 2049
internal_value=0 0.10320055020238825 0.16199865000511571 0.098650383350261744 0.091105365689848936 0.10224887587787486 0.096236311866437024 0.10762289489395827 0.089236107360672043 0.094817332777412486 0.18589753586254365 0.11839782792041152 0.1365439110406734 0.11121129400134414 0.14019397396139732 0.087530134724898442 0.098377985223373252 0.11709107725926726 0.12957071114327467 0.1142363274749688 0.079424640725372794 0.18417268790458155 0.19606093647133591 0.082165192693657157 0.17240704721673858 0.085110385134969047 0.097502913140246783 0.077420321791232649 0.29186392327149707 0.083189329081467797
internal_count=250000 142953 10268 132685 42847 89838 42400 47438 41154 26232 5051 9160 1693 15588 1551 26812 24002 23436 4363 19073 14922 5016 2495 17072 2521 9100 2774 10493 96 8569
shrinkage=0.1


Tree=5
num_leaves=31
num_cat=0
split_feature=0 3 3 0 0 0 1 0 0 1 1 0 1 1 1 1 0 0 1 1 0 1 2 1 1 0 2 0 0 1
split_gain=2880.1016675524734 30.979108376742943 4.5992038144053708 2.9180162841328183 2.9478080450078892 2.3512779167136841 4.6016700855184354 3.3634162333539734 1.8254107654261134 6.3391838727687002 1.744429776957503 1.4071464821194866 1.241010339952183 0.78379132364341331 0.87118637030079071 0.70836278171506706 3.0779650356960531 0.67629842817950703 0.65710114070513015 0.61294357032645053 0.6107395111156535 0.56829754720214964 0.74225778859572245 0.4965445585207533 0.48271408067701316 0.52833663096009786 0.46985109325442664 0.45176430295332182 0.44346032159205606 0.9239132875040923
threshold=65571.500000000015 2418.5000000000005 2417.5000000000005 2442.5000000000005 2452.5000000000005 2426.5000000000005 2422.5000000000005 2434.5000000000005 2447.5000000000005 2443.5000000000005 2418.5000000000005 2446.5000000000005 2453.5000000000005 2436.5000000000005 2437.5000000000005 2420.5000000000005 2422.5000000000005 2431.5000000000005 2432.5000000000005 2429.5000000000005 2449.5000000000005 2417.5000000000005 2420.5000000000005 2442.5000000000005 2424.5000000000005 2425.5000000000005 2422.5000000000005 2445.5000000000005 2429.5000000000005 2427.5000000000005
decision_type=2 2 2 2 2 2 2 2 2 2 2 2 2 2 2 2 2 2 2 2 2 2 2 2 2 2 2 2 2 2
left_child=1 2 10 5 8 6 15 17 9 23 21 27 -6 -9 -15 16 -3 19 -19 28 -10 22 -1 -5 25 -8 -23 -11 29 -7
right_child=-2 3 -4 4 12 7 24 13 20 11 -12 -13 -14 14 -16 -17 -18 18 -20 -21 -22 26 -24 -25 -26 -27 -28 -29 -30 -31
leaf_value=0.017300449600150317 -0.012403472697786577 0.010198832722326563 0.012497418761655721 0.006967828962860979 0.011479220601939202 0.010649259064314029 0.007743089002638385 0.0074339412273364495 0.0063483851467639888 0.010723546274534057 0.038978360035267293 0.0087752622305898344 0.021341635714035811 0.011036261481702682 0.0088679499229374816 0.0092498169321927302 0.026897594583823552 0.012469200775055731 0.0097970312810549149 0.0087885153910296828 0.0076599347975403369 0.015301658109386313 0.02626775421228638 0.0080759610776657553 0.0069310516040660903 0.0099082943766232185 0.024186180354961846 0.01241700730149013 0.011647451674045848 0.008531454150184789
leaf_count=2399 107047 7637 5217 10493 1554 11365 12073 3345 5822 3561 35 2774 139 2058 18599 14087 112 3044 1319 2404 9100 2460 96 6579 7248 1243 61 2825 2788 2516
internal_value=0 0.09288049524018302 0.14579878554331832 0.088785345036071064 0.08199482916000235 0.092023988302193604 0.086612680945894555 0.096860605189648383 0.080312496630271457 0.085335599740616414 0.16730778120740972 0.10655804572436836 0.12288952078938524 0.088540187061407816 0.090839726944808463 0.096722469348975312 0.10440187751745661 0.10538196872924686 0.11661363892008227 0.10281269399309549 0.071482176244896237 0.16575541807607075 0.17645483903450618 0.073948673474732635 0.07587754480654077 0.079452029034603522 0.15516634418027683 0.11472689135389584 0.1049655411649297 0.1026539628156965
internal_count=250000 142953 10268 132685 42847 89838 42400 47438 41154 26232 5051 9160 1693 24002 20657 21836 7749 23436 4363 19073 14922 5016 2495 17072 20564 13316 2521 6386 16669 13881
shrinkage=0.1


Tree=6
num_leaves=31
num_cat=0
split_feature=0 3 3 0 0 0 3 0 0 1 1 0 2 1 0 1 1 0 1 1 1 1 2 0 1 1 1 1 0 2
split_gain=2332.8823366298684 25.093077978245333 3.7253540112422741 2.3635931743093579 2.3877247888314628 1.904535829711449 3.7276802231255601 2.7243672756671344 1.4785823981227395 5.1347402813511849 1.4129880433848285 1.1397885376816816 1.1113641464920221 1.9295470587045145 1.0311938447927247 0.70466302173034023 0.66961770144925481 0.54780164796372333 0.53884757406186168 0.53225173012527449 0.49648423320650181 0.46032109792528786 0.60122879960923115 0.43452340680761381 0.42894611883043865 0.40993178556153609 0.40220085071140943 0.40391748232705282 0.39655382152372454 0.38522379424424713
threshold=65571.500000000015 2418.5000000000005 2417.5000000000005 2442.5000000000005 2452.5000000000005 2426.5000000000005 2420.5000000000005 2434.5000000000005 2447.5000000000005 2443.5000000000005 2418.5000000000005 2446.5000000000005 2423.5000000000005 2420.5000000000005 2454.5000000000005 2424.5000000000005 2434.5000000000005 2431.5000000000005 2449.5000000000005 2432.5000000000005 2429.5000000000005 2417.5000000000005 2420.5000000000005 2432.5000000000005 2431.5000000000005 2445.5000000000005 2442.5000000000005 2441.5000000000005 2419.5000000000005 2421.5000000000005
decision_type=2 2 2 2 2 2 2 2 2 2 2 2 2 2 2 2 2 2 2 2 2 2 2 2 2 2 2 2 2 2
left_child=1 2 10 5 8 6 12 17 9 26 21 -11 -3 -14 -6 -8 -9 20 -10 23 -7 22 -1 -19 -25 -13 27 -5 -24 -23
right_child=-2 3 -4 4 14 7 15 16 18 11 -12 25 13 -15 -16 -17 -18 19 -20 -21 -22 29 28 24 -26 -27 -28 -29 -30 -31
leaf_value=0.015570404488529832 -0.011163125353502112 0.0087441863965944579 0.011247677190650748 0.0077831544828895032 0.010224766995513061 0.0094468989637424925 0.0073922428277960247 0.00587789014162608 0.006024972060048977 0.010325420547714893 0.035080523247300856 0.0056318945226520789 0.024207836159874502 0.010581026663987837 0.018352045277733556 0.0062379461828822496 0.0081020558548793985 0.010218191816688588 0.007317549537743915 0.0088173284986835174 0.0079096640610201545 0.013715051054601206 0.030203406867689308 0.017701463202653683 0.011970819611239964 0.0085499284546541009 0.0072683646099073098 0.0060164743531140588 0.017346404504251057 0.020079170393272158
leaf_count=2399 107047 14037 5217 1512 1519 16669 19564 1440 10207 6386 35 620 112 1439 174 7248 22562 1784 4715 1319 2404 2422 47 148 1112 2154 6579 8981 49 99
internal_value=0 0.083592445871771684 0.13121890732782898 0.079906810673891007 0.073795346405905571 0.082821589603635351 0.077951412066007225 0.087174545621920965 0.072281247042788793 0.076802039350033977 0.15057700062359344 0.095902243235875914 0.090248599802471574 0.11565038524885062 0.11060057097159215 0.070802054970825729 0.079686169132444626 0.094843772985823152 0.064333959560972986 0.10495227542996405 0.092531425889729887 0.14917987384293749 0.15880935359136292 0.11222280438117968 0.12643942638329925 0.078977361820150735 0.066553804369111291 0.062710459127912718 0.23640978225739673 0.13964970646002534
internal_count=250000 142953 10268 132685 42847 89838 42400 47438 41154 26232 5051 9160 15588 1551 1693 26812 24002 23436 14922 4363 19073 5016 2495 3044 1260 2774 17072 10493 96 2521
shrinkage=0.1


Tree=7
num_leaves=31
num_cat=0
split_feature=0 3 3 0 0 0 1 0 0 1 1 0 0 1 1 1 0 0 0 1 1 0 0 1 2 1 0 1 0 3
split_gain=1889.6347291222417 20.325392837814206 3.0175374020618904 1.9145103097697529 1.9340569560069412 1.5426738479139317 3.1287542889633073 2.2067385646736852 1.1976522223675943 4.1591385239033372 1.1445203253947085 0.92322853241066127 0.83526718347909323 0.55564182749883173 0.70566099239698588 0.50772220240631327 2.0064919718741479 0.46633145873055071 0.44371940058317705 0.43112387556024601 0.40215209856768297 0.38228966335715597 0.38224824941105595 0.37286010838279537 0.48699533055602018 0.36649032457516029 0.35920269378718217 0.74836980255305718 1.0311015322083961 0.49522652305444836
threshold=65571.500000000015 2418.5000000000005 2417.5000000000005 2442.5000000000005 2452.5000000000005 2426.5000000000005 2422.5000000000005 2434.5000000000005 2447.5000000000005 2443.5000000000005 2418.5000000000005 2446.5000000000005 2454.5000000000005 2436.5000000000005 2437.5000000000005 2420.5000000000005 2422.5000000000005 2451.5000000000005 2431.5000000000005 2432.5000000000005 2429.5000000000005 2423.5000000000005 2420.5000000000005 2417.5000000000005 2420.5000000000005 2444.5000000000005 2429.5000000000005 2427.5000000000005 2428.5000000000005 2427.5000000000005
decision_type=2 2 2 2 2 2 2 2 2 2 2 2 2 2 2 2 2 2 2 2 2 2 2 2 2 2 2 2 2 2
left_child=1 2 10 5 8 6 15 18 9 -5 23 25 -6 -9 -15 16 -3 -10 20 -20 26 -17 -4 24 -1 -11 27 28 -7 -28
right_child=-2 3 22 4 12 7 -8 13 17 11 -12 -13 -14 14 -16 21 -18 -19 19 -21 -22 -23 -24 -25 -26 -27 29 -29 -30 -31
leaf_value=0.014013364160669659 -0.010046813041669322 0.0083045306373001129 0.01065625834031979 0.0059898426625209439 0.0092022900863226835 0.0084135873086376989 0.0061304390823098036 0.0059760906218607971 0.0055670254292494482 0.0087275938210819564 0.031572471103513439 0.007107962650276251 0.016516841281161983 0.0091224295474964731 0.0071709490997334795 0.0073588651802670244 0.021787052819791368 0.0071912647404886506 0.01010005267556701 0.0079355958444414527 0.0071186979184136353 0.0095358824110315255 0.0087491421917217805 0.012568473846423107 0.021276880862630677 0.010308113263542083 0.012893012575166779 0.0067336190031411867 0.012653073028780841 0.009008573629442523
leaf_count=2399 107047 7637 3758 17072 1519 10759 20564 3345 12873 4102 35 2774 174 2058 18599 13228 112 2049 3044 1319 2404 859 1459 2521 96 2284 380 2516 606 2408
internal_value=0 0.075233200744105888 0.11809701571232341 0.071916129092497505 0.066415811483188383 0.074539430018676509 0.070156270482218563 0.078457090214001268 0.065053122099695868 0.069121835991364622 0.13551930156348899 0.086312017207163624 0.099540512539449857 0.071717549737431011 0.073653696106662184 0.078492507526343139 0.084993998466201537 0.057900561933079152 0.085359396517066616 0.094457049390656439 0.083278283976434719 0.074916156756629035 0.10122909049970366 0.13426188745526643 0.14292841945039719 0.092928781183384004 0.085022089799865821 0.082941669768306955 0.086396433476406451 0.095380163852257685
internal_count=250000 142953 10268 132685 42847 89838 42400 47438 41154 26232 5051 9160 1693 24002 20657 21836 7749 14922 23436 4363 19073 14087 5217 5016 2495 6386 16669 13881 11365 2788
shrinkage=0.1


Tree=8
num_leaves=31
num_cat=0
split_feature=0 3 3 1 0 1 0 1 0 3 1 1 2 1 0 1 1 1 1 0 1 1 1 0 1 0 1 0 1 0
split_gain=1530.6040377858246 16.463569539377545 2.4442052318247534 1.5658976125047275 1.5854856581765944 1.2031526150266245 2.4651082788242604 1.2760266038545893 1.2002705852716531 2.5431959385886671 1.8584852320838365 0.92706153475941733 0.86319365767599265 1.2168209720509218 0.74781534704185049 0.6924095117606921 0.62358528030290472 0.51842291936051765 0.4204728517489329 0.37125100508598052 0.57304490680975562 0.57826791952423662 0.33204451583075212 0.33000398971080358 0.38308686007606951 0.35196383494584893 0.34744638944626516 0.32884829695812812 0.32574316497404254 0.30962109657277637
threshold=65571.500000000015 2418.5000000000005 2417.5000000000005 2441.5000000000005 2452.5000000000005 2442.5000000000005 2447.5000000000005 2443.5000000000005 2426.5000000000005 2420.5000000000005 2433.5000000000005 2418.5000000000005 2423.5000000000005 2420.5000000000005 2446.5000000000005 2453.5000000000005 2434.5000000000005 2424.5000000000005 2447.5000000000005 2436.5000000000005 2436.5000000000005 2437.5000000000005 2445.5000000000005 2431.5000000000005 2432.5000000000005 2432.5000000000005 2431.5000000000005 2425.5000000000005 2429.5000000000005 2420.5000000000005
decision_type=2 2 2 2 2 2 2 2 2 2 2 2 2 2 2 2 2 2 2 2 2 2 2 2 2 2 2 2 2 2
left_child=1 2 11 8 5 -5 7 -7 9 12 23 -1 -3 -14 -9 -6 -12 27 -8 -18 -21 -22 -16 28 25 -25 -27 -11 -10 -4
right_child=-2 3 29 4 15 6 18 14 10 17 16 -13 13 -15 22 -17 19 -19 -20 20 21 -23 -24 24 -26 26 -28 -29 -30 -31
leaf_value=0.012083570150937457 -0.0090421312904675477 0.007082431027460148 0.0095906326621220967 0.0048158429252510302 0.0083538139422621466 0.0059425440013557498 0.0042556739249477163 0.0083635903622076204 0.0076519879669263132 0.0058843946818872188 0.0042413165189415887 0.028415224720125903 0.019608347786047121 0.0087870377446909904 0.0043579091147001722 0.015720583602079716 0.0090048427692259059 0.0050011079429630031 0.0055059924170849971 0.0044541947028486064 0.0082101864477729797 0.0064502455249422132 0.0069841387420612666 0.0081863675839835646 0.0071533153597998387 0.014921311662442184 0.0097637321838028 0.0075651963886649212 0.006406827964124711 0.0078742280880549579
leaf_count=5016 107047 14037 3758 8981 1554 6579 3520 6386 16669 18321 1222 35 112 1439 620 139 604 7248 11402 1301 2058 20111 2154 1784 1537 148 1112 1243 2404 1459
internal_value=0 0.06770988034615881 0.1062873153883749 0.064724515738151314 0.059617513226436762 0.058337622511608303 0.061319238933279903 0.070049953552712513 0.067035385457053565 0.063140643174147082 0.070408972235301459 0.12196737244963358 0.073297898958524024 0.095684603775011076 0.077680813858373901 0.089586460490010206 0.064450573276168682 0.057235402865073996 0.052110505694086103 0.065569195584647647 0.064939223050240566 0.066136248489719607 0.063971659109884532 0.076780987964997188 0.084402421340579625 0.090900471984034698 0.1036954295217237 0.059911844373021002 0.074950453371931444 0.091106182895291182
internal_count=250000 142953 10268 132685 41335 39642 30661 15739 91350 42400 48950 5051 15588 1551 9160 1693 25296 26812 14922 24074 23470 22169 2774 23654 4581 3044 1260 19564 19073 5217
shrinkage=0.1


Tree=9
num_leaves=31
num_cat=0
split_feature=0 3 3 1 0 1 0 1 0 1 1 2 0 0 1 0 2 1 1 0 0 0 0 0 1 1 0 1 1 0
split_gain=1239.7893066378883 13.335490693896531 1.9798064383127922 1.268377257322129 1.2842433998151677 0.97455402317689277 1.9967379065259507 1.0335814004940715 0.97221929987512112 2.1438171528982366 1.5053733835123069 0.75639766192275459 0.60573023063069797 0.56100995934075115 0.50510408536875673 0.38916959964837616 0.51446835182970574 0.37102799564613331 0.36389034861245761 1.3070340213516047 0.36026655755896542 0.33860358426164794 0.3071413149324016 0.30071329857408102 0.46416626065212085 0.46839722624277158 0.28212529842454614 0.4858058607544109 0.2689561236265483 0.26730299086648301
threshold=65571.500000000015 2418.5000000000005 2417.5000000000005 2441.5000000000005 2452.5000000000005 2442.5000000000005 2447.5000000000005 2443.5000000000005 2426.5000000000005 2422.5000000000005 2433.5000000000005 2421.5000000000005 2446.5000000000005 2454.5000000000005 2434.5000000000005 2419.5000000000005 2420.5000000000005 2418.5000000000005 2420.5000000000005 2422.5000000000005 2451.5000000000005 2423.5000000000005 2445.5000000000005 2436.5000000000005 2436.5000000000005 2437.5000000000005 2417.5000000000005 2416.5000000000005 2445.5000000000005 2431.5000000000005
decision_type=2 2 2 2 2 2 2 2 2 2 2 2 2 2 2 2 2 2 2 2 2 2 2 2 2 2 2 2 2 2
left_child=1 2 11 8 5 -5 7 -7 9 18 29 15 22 -6 -12 16 26 -13 19 -3 -8 -20 -9 -16 -25 -26 -1 -28 -14 -10
right_child=-2 3 -4 4 13 6 20 12 10 -11 14 17 28 -15 23 -17 -18 -19 21 -21 -22 -23 -24 24 25 -27 27 -29 -30 -31
leaf_value=0.012523316407234031 -0.0081379183849382142 0.0067658346485708959 0.0081995564144487724 0.0043342583966384093 0.0074466796338448753 0.0053482897194911715 0.0044939123828745082 0.0069095308009431032 0.0067455410689963675 0.0049499284237557728 0.003817184814148002 0.015180124885292719 0.0039221181830262283 0.013441280333265179 0.0081043583996288152 0.008574663597870142 0.020997905621417175 0.026826063439287749 0.0059449990376914362 0.017647512794475125 0.0059215389962895739 0.0079938546995707571 0.0083058617699528509 0.0040087754234637354 0.0073891680798189316 0.0058052208917850701 0.0072737379610049715 0.011008111693794981 0.0062857251367949389 0.007596217815685786
leaf_count=928 107047 7637 5217 8981 1519 6579 12873 3561 19073 20564 1222 140 620 174 604 706 52 34 13228 112 2049 859 2825 1301 2058 20111 398 2793 2154 4581
internal_value=0 0.060938892144427929 0.095658582858398164 0.058252064060989359 0.05365576145402657 0.052503859803194969 0.055187315140294887 0.063044958692642927 0.060331846964752987 0.056826578683346403 0.063368075261619972 0.10977063492823645 0.069912732473948094 0.080627814166528949 0.058005515582973316 0.10745918414319217 0.11113433636237316 0.17455767790904675 0.063727041137602636 0.069231126396582243 0.046899454808542719 0.060699344916133685 0.075272311252729096 0.05901227566889939 0.058445300402588093 0.059522623165981191 0.10988647880724108 0.10542338817914544 0.057574495242046352 0.069102890076494658
internal_count=250000 142953 10268 132685 41335 39642 30661 15739 91350 42400 48950 5051 9160 1693 25296 4877 4171 174 21836 7749 14922 14087 6386 24074 23470 22169 4119 3191 2774 23654
shrinkage=0.1


Tree=10
num_leaves=31
num_cat=0
split_feature=0 3 3 1 0 1 0 1 0 1 1 0 2 0 1 1 2 0 1 1 1 0 1 0 0 0 1 1 0 1
split_gain=1004.2293192452314 10.801747605089361 1.6036432982287039 1.0273854076749558 1.0402371682972387 0.78938873268459986 1.6173576277347905 0.83720134073055164 0.78749729335203256 1.7364917454737849 1.237069301755696 0.71674741813870924 0.61268207691897913 0.49064168145245191 0.46609770794036898 0.3372325129416609 0.39215137767023123 0.33345162795644256 0.48271291962095475 0.30053272132826425 0.29475112169821216 1.0586973979761574 0.28143155977245549 0.27426883613227204 0.2507930090006667 0.24878434397972526 0.24024855617044949 0.22558583447315073 0.35731200012949671 0.21785443869374532
threshold=65571.500000000015 2418.5000000000005 2417.5000000000005 2441.5000000000005 2452.5000000000005 2442.5000000000005 2447.5000000000005 2443.5000000000005 2426.5000000000005 2422.5000000000005 2432.5000000000005 2432.5000000000005 2421.5000000000005 2446.5000000000005 2453.5000000000005 2417.5000000000005 2420.5000000000005 2449.5000000000005 2448.5000000000005 2418.5000000000005 2420.5000000000005 2422.5000000000005 2431.5000000000005 2423.5000000000005 2420.5000000000005 2445.5000000000005 2449.5000000000005 2424.5000000000005 2425.5000000000005 2445.5000000000005
decision_type=2 2 2 2 2 2 2 2 2 2 2 2 2 2 2 2 2 2 2 2 2 2 2 2 2 2 2 2 2 2
left_child=1 2 12 8 5 -5 7 -7 9 20 11 -10 15 25 -6 16 -1 -8 -19 -14 21 -3 -13 -22 -4 -9 -20 28 -11 -15
right_child=-2 3 24 4 14 6 17 13 10 27 -12 22 19 29 -16 -17 -18 18 26 -21 23 -23 -24 -25 -26 -27 -28 -29 -30 -31
leaf_value=0.010306201625779228 -0.0073241264719385857 0.0060892511201972206 0.0078116134592096853 0.0039008325551530415 0.0067602632300888081 0.0048134605025289398 0.0036299509606835738 0.0062185780656711619 0.0061169294001447239 0.0045330793938205055 0.0052467230239627103 0.012669558471355147 0.013662112110926408 0.0035299063395797729 0.012804396918468495 0.0088344742236463689 0.018846394705265713 0.0075248405570379952 0.0038320913029352851 0.024143457591699127 0.0053504991525499907 0.015882760714620293 0.0080277370698814896 0.0071944690226112438 0.0062668495865378397 0.0074752756318813389 0.0048964763563718308 0.0040060042754112464 0.0063136841786406821 0.0056571524932774999
leaf_count=2399 107047 7637 3758 8981 1554 6579 5822 3561 20857 12073 26833 148 140 620 139 2423 55 531 3854 34 13228 112 1112 859 1459 2825 4715 7248 1243 2154
internal_value=0 0.054845002454964771 0.086092724304423954 0.052426857163859926 0.048290185161359848 0.047253473668412406 0.049668583431893606 0.056740462461647087 0.054298661621696165 0.051143920848548088 0.057031266499765185 0.062568491527885281 0.098793571496731791 0.062921460364775986 0.072565032771178317 0.09671326583983017 0.10497607589716074 0.042209509309839584 0.045990610564788634 0.15710190878816394 0.057354336792055552 0.062308013015251823 0.085729667575455207 0.054629410473212084 0.073796006043287884 0.067745082222464156 0.044177576540682585 0.044549355465236036 0.046992922817057386 0.051817044653457774
internal_count=250000 142953 10268 132685 41335 39642 30661 15739 91350 42400 48950 22117 5051 9160 1693 4877 2454 14922 9100 174 21836 7749 1260 14087 5217 6386 8569 20564 13316 2774
shrinkage=0.1


Tree=11
num_leaves=31
num_cat=0
split_feature=0 3 3 1 0 1 0 1 0 3 1 2 1 0 2 0 1 1 0 2 1 1 0 0 1 0 1 1 0 1
split_gain=813.42581292996022 8.7494156867144852 1.2989508792470303 0.83218233634977423 0.84259221082481872 0.63940526809940934 1.3100596410076619 0.67813298547535794 0.63787319405102494 1.4688451170816847 1.0020258433321487 0.65266953602368005 0.58695659659118782 0.58056549712105721 0.49627254724027381 0.39741963863315988 0.37753916407283228 0.29913379497481429 0.29232044322503015 0.34437363680050481 0.28108762304410462 0.24343148429494521 0.23297335029343458 0.22816249428590663 0.22795951864048014 0.20863797443001886 0.41501168776462194 0.2085103276872573 0.20314235819449067 0.18539454635272268
threshold=65571.500000000015 2418.5000000000005 2417.5000000000005 2441.5000000000005 2452.5000000000005 2442.5000000000005 2447.5000000000005 2443.5000000000005 2426.5000000000005 2420.5000000000005 2432.5000000000005 2423.5000000000005 2420.5000000000005 2432.5000000000005 2421.5000000000005 2446.5000000000005 2453.5000000000005 2424.5000000000005 2419.5000000000005 2420.5000000000005 2447.5000000000005 2418.5000000000005 2425.5000000000005 2448.5000000000005 2431.5000000000005 2417.5000000000005 2416.5000000000005 2444.5000000000005 2420.5000000000005 2451.5000000000005
decision_type=2 2 2 2 2 2 2 2 2 2 2 2 2 2 2 2 2 2 2 2 2 2 2 2 2 2 2 2 2 2
left_child=1 2 14 8 5 -5 7 -7 9 11 13 -3 -13 -10 18 27 29 22 19 25 23 -16 -11 -8 -15 -1 -27 -9 -4 -6
right_child=-2 3 28 4 16 6 20 15 10 17 -12 12 -14 24 21 -17 -18 -19 -20 -21 -22 -23 -24 -25 -26 26 -28 -29 -30 -31
leaf_value=0.010240364529766927 -0.0065917142717795696 0.0051597867767276115 0.0070304522444497222 0.0035107490372439545 0.008950920770424876 0.0043321145342515707 0.0033068052916106531 0.0056706747253314838 0.0055052364757626543 0.0042675911950989564 0.004722050878838562 0.014294484808306911 0.0067787838613249697 0.011402602446104188 0.012295901263417532 0.0046635342267351606 0.011523957470982069 0.0036054037706416929 0.0068224048065828082 0.017109743646047053 0.0040400064360036963 0.021729111808972232 0.0056823154663879693 0.00077551248939168366 0.0072249635950582891 0.0055157439420935881 0.0089673130118635477 0.0068628287551883681 0.0056401646875126991 0.0056680714152402218
leaf_count=928 107047 14037 3758 8981 197 6579 3118 4102 20857 18321 26833 112 1439 148 140 2774 139 7248 706 52 11402 34 1243 402 1112 398 2793 2284 1459 1357
internal_value=0 0.049360502298304153 0.077483452166267855 0.047184171520565518 0.043461166369062602 0.042528125967548874 0.044701725425427566 0.051066416461215403 0.048868795690651702 0.046029528134776794 0.051328140825873274 0.053748767007589092 0.07321503614290524 0.056311642627324153 0.08891421379314518 0.056629314161750599 0.065308530572728937 0.041541705684030927 0.087041938579442688 0.09022712952174522 0.037988558811551089 0.14139172078870321 0.04357475727857768 0.030177201027533389 0.077156702657642504 0.089206188558347041 0.085368132012428821 0.060970573159992526 0.066416406550519849 0.060842369120756946
internal_count=250000 142953 10268 132685 41335 39642 30661 15739 91350 42400 48950 15588 1551 22117 5051 9160 1693 26812 4877 4171 14922 174 19564 3520 1260 4119 3191 6386 5217 1554
shrinkage=0.1


Tree=12
num_leaves=31
num_cat=0
split_feature=0 3 3 1 0 1 0 1 0 3 1 2 1 1 2 0 0 1 2 0 0 1 1 1 0 0 1 0 3 0
split_gain=658.87485069561365 7.0870263721089941 1.0521502183869416 0.67406755003287344 0.68249959589359577 0.5179179849372133 1.061148430574903 0.54928743657682588 0.51667679100040687 1.1897645151860416 0.82054256127295844 0.5286624005744045 0.47543481039769731 0.40913419853894339 0.40198076518530712 0.32190996782522774 0.31432450462026473 0.2491935810709407 0.26448065370559704 0.24554534916437021 0.24357784180440945 0.41546154233466837 0.24229855642931142 0.19717950490837977 0.18870840976515879 0.17725791802672575 0.26385202429596433 0.29095421873327609 0.60629208800646239 0.82399459942789832
threshold=65571.500000000015 2418.5000000000005 2417.5000000000005 2441.5000000000005 2452.5000000000005 2442.5000000000005 2447.5000000000005 2443.5000000000005 2426.5000000000005 2420.5000000000005 2433.5000000000005 2423.5000000000005 2420.5000000000005 2434.5000000000005 2421.5000000000005 2446.5000000000005 2454.5000000000005 2417.5000000000005 2420.5000000000005 2451.5000000000005 2436.5000000000005 2435.5000000000005 2424.5000000000005 2418.5000000000005 2425.5000000000005 2431.5000000000005 2429.5000000000005 2429.5000000000005 2426.5000000000005 2428.5000000000005
decision_type=2 2 2 2 2 2 2 2 2 2 2 2 2 2 2 2 2 2 2 2 2 2 2 2 2 2 2 2 2 2
left_child=1 2 14 8 5 -5 7 -7 9 11 25 -3 -13 -12 17 -9 -6 18 -1 -8 -15 -22 24 -16 -11 26 27 28 29 -10
right_child=-2 3 -4 4 16 6 19 15 10 22 13 12 -14 20 23 -17 -18 -19 -20 -21 21 -23 -24 -25 -26 -27 -28 -29 -30 -31
leaf_value=0.0083868672671556233 -0.0059325423975667702 0.0046438081798474877 0.005977476608155576 0.0031596743534689177 0.005416602686502783 0.003898903276987207 0.003257131199743859 0.0054873515919818131 0.0049702589323796093 0.0038408322538180492 0.0024385889616444422 0.012865036332091255 0.0061009057134272498 0.0062970452197854288 0.01106631107279789 0.0041971806085734998 0.0099036855971534887 0.0071144040204221028 0.015400415237461558 0.004435736844608274 0.0005468052080453568 0.0043108311703783488 0.0032448633160469947 0.019556200620405292 0.0051140840845764826 0.0056015026219301397 0.0039293744148346894 0.0059822452836956197 0.0034561080616896116 0.0087425036065081566
leaf_count=2399 107047 14037 5217 8981 1519 6579 12873 6386 10759 18321 1222 112 1439 604 140 2774 174 2423 55 2049 297 23173 7248 34 1243 4581 2404 2788 2510 612
internal_value=0 0.044424451989836626 0.069735106274347244 0.042465754336044895 0.039115050053644365 0.038275313750648028 0.040231552729743103 0.045959774989507499 0.043981915928962535 0.041426576355661208 0.046195325487858874 0.048373891254625261 0.065893534742262186 0.042236188049413717 0.080022791768832507 0.050966381636370059 0.058777676470289877 0.078337744072474638 0.085440574977719369 0.034189702431764835 0.043142272004266936 0.042631994191306831 0.037387536200318393 0.12725254817766768 0.039217283324495006 0.050429296090839716 0.049087701905615948 0.050500184709387656 0.048627806562685616 0.05173285303323194
internal_count=250000 142953 10268 132685 41335 39642 30661 15739 91350 42400 48950 15588 1551 25296 5051 9160 1693 4877 2454 14922 24074 23470 26812 174 19564 23654 19073 16669 13881 11371
shrinkage=0.1


Tree=13
num_leaves=31
num_cat=0
split_feature=0 3 3 1 0 1 0 1 0 1 1 0 2 0 0 0 2 0 1 1 0 0 1 1 1 1 0 1 1 0
split_gain=533.688656894357 5.740491450223999 0.85224170270839039 0.54599478897520726 0.55282470093222713 0.41951338433342755 0.85953022222923892 0.44492295145371941 0.41850818357443131 1.0050310459959704 0.67842030638720985 0.44078608629988025 0.32560436425850625 0.26074704952866412 0.25460278907808576 0.21961318925357531 0.23020108615433088 0.21815050779072287 0.39891834864845066 0.19354724164417547 0.55307715468779151 0.25945862521852447 0.18464723256208693 0.17646213185851733 0.17434794501949469 0.16889341262593049 0.16454533197417476 0.15971537881116404 0.15766875525479573 0.15421478690718615
threshold=65571.500000000015 2418.5000000000005 2417.5000000000005 2441.5000000000005 2452.5000000000005 2442.5000000000005 2447.5000000000005 2443.5000000000005 2426.5000000000005 2422.5000000000005 2432.5000000000005 2432.5000000000005 2421.5000000000005 2446.5000000000005 2454.5000000000005 2419.5000000000005 2420.5000000000005 2449.5000000000005 2448.5000000000005 2420.5000000000005 2422.5000000000005 2423.5000000000005 2431.5000000000005 2445.5000000000005 2449.5000000000005 2444.5000000000005 2420.5000000000005 2418.5000000000005 2451.5000000000005 2417.5000000000005
decision_type=2 2 2 2 2 2 2 2 2 2 2 2 2 2 2 2 2 2 2 2 2 2 2 2 2 2 2 2 2 2
left_child=1 2 12 8 5 -5 7 -7 9 19 11 -10 15 25 28 16 29 -8 -19 20 -3 -21 -13 -15 -20 -9 -4 -14 -6 -1
right_child=-2 3 26 4 14 6 17 13 10 -11 -12 22 27 23 -16 -17 -18 18 24 21 -22 -23 -24 -25 -26 -27 -28 -29 -30 -31
leaf_value=0.0083776414047083084 -0.0053392884185804179 0.0044999666468751344 0.0057296592986877766 0.0028437070086727387 0.0075141683061765935 0.0035090127778259362 0.0025990497413463987 0.0045548719327211488 0.0044579105147369326 0.0032266971660651843 0.003819591116503799 0.0097021920528977054 0.0099596797115705463 0.0022908440324942349 0.0089133166191659122 0.0054193346754625475 0.013938400689275168 0.006042642782188066 0.0027191685142331453 0.0038706868541574561 0.0115785327203566 0.0056641796850978648 0.0059423168582521824 0.0042053657689151086 0.0036258960205789248 0.0056278107095150253 0.0044784004144178277 0.017600579822072082 0.0044816539030324972 0.0069130330024572851
leaf_count=928 107047 7637 3758 8981 197 6579 5822 4102 20857 20564 26833 148 140 620 174 706 52 531 3854 13228 112 859 1112 2154 4715 2284 1459 34 1322 3191
internal_value=0 0.039982006617816611 0.062761595650096813 0.038219178715767001 0.035203544658771201 0.034447781966758559 0.036208396662959497 0.041363796677144883 0.039583724241173908 0.037283918672285685 0.041575792803397828 0.045676366085238569 0.072020512735362904 0.045869743306601138 0.05289990888603955 0.070503969937986743 0.073264770834073761 0.030770731415454885 0.033829030823629078 0.042008616796242668 0.046022764763769042 0.039800507716924019 0.063839528970981066 0.037774625127054991 0.032180855152261767 0.049386163261198851 0.053797288539175016 0.11452728987791196 0.04874942400119877 0.072430053629157984
internal_count=250000 142953 10268 132685 41335 39642 30661 15739 91350 42400 48950 22117 5051 9160 1693 4877 4171 14922 9100 21836 7749 14087 1260 2774 8569 6386 5217 174 1519 4119
shrinkage=0.1


Tree=14
num_leaves=31
num_cat=0
split_feature=0 3 3 1 0 1 1 1 0 1 1 0 2 0 1 1 0 2 0 1 0 0 1 1 1 0 0 1 1 1
split_gain=432.28779060065585 4.6497980090686895 0.69031583129761032 0.44225584503479354 0.4477879360502186 0.33980594746556392 0.6990966758103454 0.34625389443169396 0.33899185698045642 0.81407521668137406 0.54952030431000765 0.3570366323691232 0.26373956369525686 0.23020739310562455 0.22226065611457635 0.21055960421508546 0.17788671571859993 0.18646289159365992 0.16835821829592112 0.15677315355605614 0.44799253418473128 0.21016157848029593 0.15288371440521331 0.37940160225177877 0.23977542265010499 0.51556784009402445 0.19265560596918307 0.28525977659920621 0.25268431429298843 0.14956425523291905
threshold=65571.500000000015 2418.5000000000005 2417.5000000000005 2441.5000000000005 2452.5000000000005 2442.5000000000005 2446.5000000000005 2443.5000000000005 2426.5000000000005 2422.5000000000005 2432.5000000000005 2432.5000000000005 2421.5000000000005 2446.5000000000005 2447.5000000000005 2453.5000000000005 2419.5000000000005 2420.5000000000005 2448.5000000000005 2420.5000000000005 2422.5000000000005 2423.5000000000005 2436.5000000000005 2437.5000000000005 2438.5000000000005 2439.5000000000005 2436.5000000000005 2434.5000000000005 2433.5000000000005 2431.5000000000005
decision_type=2 2 2 2 2 2 2 2 2 2 2 2 2 2 2 2 2 2 2 2 2 2 2 2 2 2 2 2 2 2
left_child=1 2 12 8 5 -5 7 -7 9 19 11 -10 16 -9 18 -6 17 -1 -8 20 -3 -21 26 -24 25 -25 27 28 -12 -13
right_child=-2 3 -4 4 15 6 14 13 10 -11 22 29 -14 -15 -16 -17 -18 -19 -20 21 -22 -23 23 24 -26 -27 -28 -29 -30 -31
leaf_value=0.006518705005543456 -0.0048053593159520513 0.0040499698596032207 0.0048417560477077024 0.0025593362615776057 0.004427457133787561 0.0031581113533340898 0.0022992362008035973 0.0044447547753357153 0.0040121195510356414 0.0029040274227366642 0.0037393749090922734 0.0087319726672411228 0.010307456519292667 0.0033898617031563457 0.0029666477476752193 0.0084898610852702349 0.0048774011356523513 0.01254456089293861 0.00011234325483643325 0.0034836182289466103 0.010420679602238629 0.0050977621303002207 0.0048403314120571504 0.003193264526450473 0.0035836280611379811 -3.2666922839206774e-05 0.0018839055799506376 0.0052853815397331345 0.0018127708910841314 0.0053480850276081864
leaf_count=4119 107047 7637 5217 8981 1554 6579 2832 6386 20857 20564 1537 148 174 3060 11402 139 706 52 402 13228 112 859 2058 3298 16230 583 1301 604 1222 1112
internal_value=0 0.03598380647549921 0.056485436459903345 0.034397261374848338 0.031683190521142907 0.031003004152791103 0.032587557626879468 0.037150948214293704 0.035625352439302781 0.033555526730368337 0.037418214748982465 0.041108730219553344 0.064818462151123885 0.041030256435978518 0.027591087678579859 0.047609917050500439 0.063453573559362195 0.065938294592284133 0.020273960455841369 0.037807755223245462 0.041420487101512311 0.035820457762842976 0.034376321160393179 0.035471165094832134 0.03414779175633046 0.027086682390034287 0.029172291318502727 0.033169775640666248 0.02886054782721012 0.057455574583940371
internal_count=250000 142953 10268 132685 41335 39642 30661 16025 91350 42400 48950 22117 5051 9446 14636 1693 4877 4171 3234 21836 7749 14087 26833 22169 20111 3881 4664 3363 2759 1260
shrinkage=0.1


Tree=15
num_leaves=31
num_cat=0
split_feature=0 0 3 3 2 0 0 1 0 1 1 1 1 0 1 0 1 0 0 1 0 1 2 0 1 1 1 0 1 0
split_gain=350.1531382735642 3.7686896444905926 0.6211903685743323 0.39235347673161414 0.40483511471361666 0.36340029027641663 0.36285577663852564 0.95805283407757713 0.32519507593362107 0.22210454990781603 0.20859182902096052 0.23322247959708875 0.47026616080810157 0.43332214422375692 0.3627259762559305 0.18646805248149789 0.1629864116240185 0.16863576471973829 0.15981136645067906 0.30565358616532734 0.15660319832069192 0.6393293903167212 0.15103496096794089 0.14154126606607065 0.13714692128251649 0.13682342904931866 0.12821962442880874 1.8950558862055349 0.17221563259871786 0.23945376723398404
threshold=65571.500000000015 2420.5000000000005 2417.5000000000005 2420.5000000000005 2423.5000000000005 2419.5000000000005 2426.5000000000005 2433.5000000000005 2454.5000000000005 2420.5000000000005 2434.5000000000005 2446.5000000000005 2443.5000000000005 2451.5000000000005 2441.5000000000005 2446.5000000000005 2424.5000000000005 2425.5000000000005 2436.5000000000005 2435.5000000000005 2427.5000000000005 2426.5000000000005 2420.5000000000005 2445.5000000000005 2445.5000000000005 2418.5000000000005 2423.5000000000005 2424.5000000000005 2422.5000000000005 2423.5000000000005
decision_type=2 2 2 2 2 2 2 2 2 2 2 2 2 2 2 2 2 2 2 2 2 2 2 2 2 2 2 2 2 2
left_child=1 5 25 4 -4 22 16 20 10 -6 -9 12 14 -13 18 23 17 26 -12 -20 -8 -22 -1 -14 -17 -3 27 28 29 -5
right_child=-2 2 3 6 9 -7 7 8 -10 -11 11 13 15 -15 -16 24 -18 -19 19 -21 21 -23 -24 -25 -26 -27 -28 -29 -30 -31
leaf_value=0.0058668343434792767 -0.0043248236823800745 0.0077225137695884263 0.0033947119388737998 0.0027902301651713912 0.0093786115856364875 0.0046364569718505815 0.003237240768678921 0.001631494002549699 0.0072547137465484423 0.0047553845114264416 0.0047568433720906571 0.0023448759357392796 0.0035809547182147979 0.0035933668623073828 0.0025312567527005264 0.0017227734909466691 0.0023073046488462246 0.0039896031265271512 -7.8224950645554696e-05 0.0031502836196975856 0.0063226153724757813 0.0036829729915174932 0.011290104979252787 0.0045288509322156745 0.0033883438876501871 0.014809776860577398 0.0024407799480433172 0.0085441952790928435 0.0022366469603851387 0.0045879858891489178
leaf_count=4119 107047 137 15496 5389 112 4467 6011 1222 174 1439 604 12587 3561 3568 15560 620 7248 1243 297 23173 971 16672 52 2825 2440 34 6779 583 4711 859
internal_value=0 0.032385425859539935 0.031083330197995255 0.031006547648642389 0.035488859102970609 0.052632124028140742 0.030354012029779966 0.03131330429007257 0.029372413677950366 0.050892344886609091 0.02925937213603709 0.029501850810616109 0.030586641814598199 0.026206181205203474 0.029075484750592087 0.036927230325588908 0.027123753126284598 0.028624444406335142 0.031507610607036184 0.031094285650383118 0.036780602944689739 0.038282482704076755 0.059344463559986009 0.040002792443486292 0.030508753304382158 0.091316770551159804 0.027859716404222929 0.029887142092311983 0.026931721534320659 0.03037392758658583
internal_count=250000 142953 134315 134144 17047 8638 117097 90285 66631 1551 66457 65235 49080 16155 39634 9446 26812 19564 24074 23470 23654 17643 4171 6386 3060 171 18321 11542 10959 6248
shrinkage=0.1


Tree=16
num_leaves=31
num_cat=0
split_feature=0 3 3 0 0 0 3 1 2 0 1 0 1 1 1 1 0 1 0 1 1 0 1 0 1 0 2 1 1 1
split_gain=283.62400987089774 3.0586557892453214 0.44644650515166973 0.2926918137554253 0.30571841936459165 0.2350893991924039 0.55691097668428569 0.34966639781588782 0.33159515571992415 0.2889931766135021 0.19626891641089372 0.4789577404147991 0.21904040660179369 0.17990465909621189 0.17677815116879003 0.14708834227120793 0.14817567623412453 0.13879781897216192 0.13856277534993566 0.34912050395763039 0.22328548215850219 0.17001839034401733 0.1975277130979558 0.13682508063135046 0.1320190515092925 0.13659496721404274 0.13009157740311217 0.12390314809397474 0.12114705611140764 0.11853997096601709
threshold=65571.500000000015 2418.5000000000005 2417.5000000000005 2442.5000000000005 2452.5000000000005 2426.5000000000005 2420.5000000000005 2432.5000000000005 2423.5000000000005 2432.5000000000005 2442.5000000000005 2447.5000000000005 2443.5000000000005 2420.5000000000005 2418.5000000000005 2447.5000000000005 2448.5000000000005 2453.5000000000005 2417.5000000000005 2416.5000000000005 2417.5000000000005 2416.5000000000005 2415.5000000000005 2446.5000000000005 2424.5000000000005 2425.5000000000005 2422.5000000000005 2451.5000000000005 2431.5000000000005 2420.5000000000005
decision_type=2 2 2 2 2 2 2 2 2 2 2 2 2 2 2 2 2 2 2 2 2 2 2 2 2 2 2 2 2 2
left_child=1 2 14 5 10 6 8 9 29 -7 -5 12 -12 -10 18 16 -13 27 21 -20 -21 -1 -23 -14 25 -8 -22 -6 -11 -3
right_child=-2 3 -4 4 17 7 24 -9 13 28 11 15 23 -15 -16 -17 -18 -19 19 20 26 22 -24 -25 -26 -27 -28 -29 -30 -31
leaf_value=0.0021710884439279563 -0.0038923409416130317 0.0033055018081305336 0.0039286617303391086 0.0021434667960915444 0.0059606690725205443 0.0032431673705804339 0.0025073745826497684 0.0027877786403187835 0.0084407503743741171 0.0074904782070643145 0.0025891746949061921 0.0019065204796140003 0.0036002514100913854 0.0042798463120600474 0.012329847783507902 0.002413059180283215 -0.00013337875590796862 0.0069154037536521083 0.0021455944621341424 0.006396821342841948 0.0046101815250351036 0.0094870300351572023 0.0058853038238317308 0.0027591218143421924 0.0020765741423839608 0.003590642874022314 0.0092851485089430197 0.0032769092481164555 0.0044449792135846222 0.0027220322765276941
leaf_count=90 107047 7637 5217 10493 197 20857 18321 25321 112 148 6579 3118 6386 1439 35 11402 402 139 401 1166 2460 200 638 2774 7248 1243 61 1357 1112 6400
internal_value=0 0.029146883143163636 0.045774754286633905 0.027860113870818212 0.025709491290736831 0.028885823767395905 0.027174757842373404 0.030415171446913466 0.031927884283959311 0.033320137636306618 0.0251677111952095 0.026445256807189763 0.030293658444082463 0.045803112695844778 0.052476123064241147 0.022386149893702682 0.01673554689710231 0.038879259779414782 0.051981947954058895 0.049477782226768061 0.052525451607832126 0.063013229735486606 0.067449042510874677 0.033455249957622939 0.024411378199995323 0.025762000649205696 0.047233004495030498 0.036171284254960669 0.048027044206179516 0.030394759024513964
internal_count=250000 142953 10268 132685 42847 89838 42400 47438 15588 22117 41154 30661 15739 1551 5051 14922 3520 1693 5016 4088 3687 928 838 9160 26812 19564 2521 1554 1260 14037
shrinkage=0.1


Tree=17
num_leaves=31
num_cat=0
split_feature=0 0 3 3 2 0 1 0 0 1 1 1 1 1 1 0 1 1 1 0 0 1 0 1 0 1 0 2 0 0
split_gain=229.73545334918305 2.5093417672821516 0.40822897339842257 0.24983337717912946 0.26824897195862718 0.23806955570829302 0.63244626706450191 0.23743784262851442 0.21808208619640368 0.22196822496459845 0.34424323831531467 0.19488513128007412 0.21871968483679005 0.14572277948937939 0.14054012578748942 0.12872342913076018 0.2504450459155656 0.30499907889392475 0.19719026819494978 0.4176100390194748 0.12345162258131381 0.52117020669938086 0.12023953768555451 0.1187666540285619 1.5349951401199702 0.13949462723611195 0.19395741495100216 0.11734454635396041 0.11464845399875223 0.11280164532605053
threshold=65571.500000000015 2420.5000000000005 2417.5000000000005 2420.5000000000005 2423.5000000000005 2426.5000000000005 2433.5000000000005 2419.5000000000005 2452.5000000000005 2446.5000000000005 2443.5000000000005 2441.5000000000005 2434.5000000000005 2420.5000000000005 2447.5000000000005 2436.5000000000005 2436.5000000000005 2437.5000000000005 2438.5000000000005 2439.5000000000005 2427.5000000000005 2426.5000000000005 2446.5000000000005 2423.5000000000005 2424.5000000000005 2422.5000000000005 2423.5000000000005 2420.5000000000005 2445.5000000000005 2454.5000000000005
decision_type=2 2 2 2 2 2 2 2 2 2 2 2 2 2 2 2 2 2 2 2 2 2 2 2 2 2 2 2 2 2
left_child=1 7 -3 4 -4 23 20 27 9 10 11 12 -8 -6 -11 -14 -17 -18 19 -19 -7 -22 28 24 25 26 -5 -1 -12 -10
right_child=-2 2 3 5 13 6 8 -9 29 14 22 -13 15 -15 -16 16 17 18 -20 -21 21 -23 -24 -25 -26 -27 -28 -29 -30 -31
leaf_value=0.004758303984144955 -0.0035031069592104391 0.0073998630747843094 0.0027429210221760524 0.0022604699489701154 0.0075966752364037575 0.0025891998998590214 0.0011895664879138907 0.0037687115312675765 0.0032228689546147178 0.0014248733812001547 0.0028628340067097073 0.0020449388725275672 0.0040023811692387551 0.0038518615080905473 0.002171753415051875 0.0011754110871412646 0.0037624920897689619 0.0022801318664691004 0.0026374615176754362 -0.00062320674568023691 0.0053660369693473301 0.0029827708001099445 0.0024778444938379522 0.0020140440308897443 0.0074390382932188713 0.0017622450772293216 0.0038784495311775628 0.0095385911724227071 0.0037159407052907538 0.0059108901670219633
leaf_count=4119 107047 171 15496 5389 112 6011 1222 4467 1519 3234 3561 15560 604 1439 11402 1301 2058 3298 16230 583 971 16672 3060 15270 583 4711 859 52 2825 174
internal_value=0 0.026232194425099848 0.025169697669925384 0.025107453012186177 0.028684202362658093 0.024586749269327739 0.025363775805403121 0.042753293252520308 0.023786824996613387 0.023494712016398418 0.024491986079384107 0.023234115003023761 0.024947047704763078 0.041222799750784113 0.020067212705363574 0.025609537944420946 0.025238586901236221 0.026029930829364261 0.024843391701186369 0.018439951703794588 0.029805891698717932 0.03113936170606571 0.029932551471696014 0.021970240213324239 0.024391055420685839 0.021731177029140181 0.02482916208565282 0.048178999166179223 0.032402261324778525 0.034991333389525175
internal_count=250000 142953 134315 134144 17047 117097 90285 8638 66631 64938 50302 40856 25296 1551 14636 24074 23470 22169 20111 3881 23654 17643 9446 26812 11542 10959 6248 4171 6386 1693
shrinkage=0.1


Tree=18
num_leaves=31
num_cat=0
split_feature=0 0 3 1 1 0 0 1 0 1 1 0 1 0 1 0 1 0 0 1 0 1 0 0 1 0 0 3 0 1
split_gain=186.08572126068987 2.0325666868842376 0.33066543810251403 0.21451503189098275 0.20396819804730448 0.19166376704490506 0.16684940021840333 0.18072067821352533 0.27168329353495313 0.18818142884927624 0.27551611363249862 0.29415238032314051 0.2406439497903996 0.2340019375141793 0.18904301789964606 1.1700630237586989 0.19732193814876631 0.14867014062340544 0.19004772917475021 0.19682533147966352 0.13771490278966247 0.15999741526414901 0.1224507705905804 0.11529725594334828 0.099222938145732797 0.6762172769389263 0.42076497408400471 0.57533955408431936 0.12821346173257719 0.40450550425973564
threshold=65571.500000000015 2420.5000000000005 2417.5000000000005 2420.5000000000005 2417.5000000000005 2422.5000000000005 2454.5000000000005 2446.5000000000005 2451.5000000000005 2443.5000000000005 2441.5000000000005 2426.5000000000005 2432.5000000000005 2432.5000000000005 2423.5000000000005 2424.5000000000005 2422.5000000000005 2418.5000000000005 2417.5000000000005 2416.5000000000005 2416.5000000000005 2415.5000000000005 2423.5000000000005 2421.5000000000005 2427.5000000000005 2428.5000000000005 2429.5000000000005 2427.5000000000005 2427.5000000000005 2426.5000000000005
decision_type=2 2 2 2 2 2 2 2 2 2 2 2 2 2 2 2 2 2 2 2 2 2 2 2 2 2 2 2 2 2
left_child=1 4 -3 5 17 23 7 9 -9 10 11 14 13 24 15 16 22 18 20 -20 -1 -22 -5 -4 25 28 -26 -28 -13 -30
right_child=-2 2 3 6 -6 -7 -8 8 -10 -11 -12 12 -14 -15 -16 -17 -18 -19 19 -21 21 -23 -24 -25 26 -27 27 -29 29 -31
leaf_value=0.0014781493148097458 -0.0031527963005422988 0.0066598765917436666 0.0025217201420291231 0.0022585036596014436 0.0035416866612437647 0.0068370071524730602 0.0053198015960165025 0.0016906264178660286 0.002679205496927971 0.002693929721769977 0.0018404451945456528 0.0023302799108926007 0.0022552497602226886 0.0040241568741629314 0.001812639738676191 0.0066951345546844634 0.0015860204933235791 0.0060026587840552028 0.0014787860305830779 0.0044149563634899589 0.0080624965962633206 0.0048209433337277783 0.0034906047729004676 0.0035026163660825684 0.0012735217683092785 0.0060703365005162135 0.0065656228047551697 0.0025640268362672426 0.004850646096860963 0.0025587179207734018
leaf_count=90 107047 171 7676 13228 6184 112 174 12587 3568 9446 15560 6011 26833 1260 15270 583 4711 590 395 541 200 638 859 1420 2516 606 380 6596 967 3781
internal_value=0 0.023608975209747207 0.022652728164108016 0.022596707974713644 0.038477963625471651 0.027254760509521619 0.022253401419833448 0.022210244346429001 0.019089643748175199 0.022674425316944621 0.022268156963633788 0.022987278198429217 0.024565478004158224 0.027007685904980157 0.020757822180119932 0.022831082626901353 0.021462739574411974 0.046191829636972603 0.041812802377113698 0.031758673402062135 0.051953604877812254 0.055945836471485114 0.023336349413835368 0.026748503394350275 0.026208208913148932 0.0282015162518254 0.023821574072856254 0.027820036394258923 0.026370851710849064 0.030255027422182616
internal_count=250000 142953 134315 134144 8638 9208 124936 124762 16155 108607 99161 83601 48950 22117 34651 19381 18798 2454 1864 936 928 838 14087 9096 20857 11365 9492 6976 10759 4748
shrinkage=0.1


Tree=19
num_leaves=31
num_cat=0
split_feature=0 0 3 1 0 0 0 1 0 1 1 0 1 0 1 0 1 0 1 1 0 1 0 0 1 1 0 1 1 1
split_gain=150.72943142672651 1.6463790525372985 0.26783900438405794 0.17375703724872693 0.16771479968119074 0.15524771314835029 0.13514799226958729 0.14638377978334915 0.22006348837059431 0.15242689600677295 0.22316809677400329 0.2382633645102743 0.19492169755809385 0.18954161374336387 0.15312485915261043 0.94775095818073218 0.15983094406487464 0.099185050516299 0.098129105152804375 0.09752511477774739 0.25198254991889968 0.11850059726232942 0.37084032947044587 0.11026387715431607 0.15695828146765001 0.12397198237463836 0.097394086835455695 0.11257513945962172 0.096090275262090685 0.093583988509191141
threshold=65571.500000000015 2420.5000000000005 2417.5000000000005 2420.5000000000005 2419.5000000000005 2422.5000000000005 2454.5000000000005 2446.5000000000005 2451.5000000000005 2443.5000000000005 2441.5000000000005 2426.5000000000005 2432.5000000000005 2432.5000000000005 2423.5000000000005 2424.5000000000005 2422.5000000000005 2423.5000000000005 2431.5000000000005 2436.5000000000005 2438.5000000000005 2438.5000000000005 2439.5000000000005 2436.5000000000005 2434.5000000000005 2433.5000000000005 2446.5000000000005 2445.5000000000005 2444.5000000000005 2418.5000000000005
decision_type=2 2 2 2 2 2 2 2 2 2 2 2 2 2 2 2 2 2 2 2 2 2 2 2 2 2 2 2 2 2
left_child=1 4 29 5 -1 -4 7 9 -9 10 11 14 13 -13 15 16 17 -5 -15 23 -21 22 -22 24 25 -14 28 -28 -11 -3
right_child=-2 2 3 6 -6 -7 -8 8 -10 26 -12 12 19 18 -16 -17 -18 -19 -20 20 21 -23 -24 -25 -26 -27 27 -29 -30 -31
leaf_value=0.0039190190671848559 -0.0028375165959822618 0.0048284704734700926 0.0024073651926751795 0.0020326535106187701 0.003037230976364034 0.0061533070346234606 0.0047878212505785287 0.0015215637778889536 0.0024112849907025335 0.0023573593866316757 0.0016564006921454232 0.0023587389237418929 0.002194560501859533 0.0060407376374128508 0.0016313758386264634 0.0060256210025278981 0.0014274182692624925 0.0031415441008163466 0.0032997886870954752 0.0033350288596478805 0.0019232895815273683 0.0021481902529236537 -0.00078641081421848493 0.0008323450411036518 0.0033766178192965292 0.00084508472633114916 0.00075740658589540865 0.0022664134268470205 0.0031666570835843524 0.010689839903300103
leaf_count=4171 107047 137 9096 13228 4467 112 174 12587 3568 4102 15560 20857 1537 148 15270 583 4711 859 1112 1578 3778 16230 583 1301 604 1222 620 2440 2284 34
internal_value=0 0.021248077973838122 0.020387455623311498 0.020337037452901646 0.034630167694952196 0.024529283062429661 0.020028061676723968 0.019989220313808034 0.017180679483458614 0.020406983230694557 0.020041341786311322 0.020688550962490327 0.02210893059821907 0.024306918262780346 0.01868204081360799 0.020547975304995303 0.019316466616919072 0.021002716391135608 0.036217413669741259 0.020297247477542971 0.021171687121837986 0.020238374881403648 0.015610434379450195 0.016140846861253055 0.019165061236243699 0.015968586304038527 0.024245366807498094 0.019606669135164279 0.02646810637488636 0.059938888672782839
internal_count=250000 142953 134315 134144 8638 9208 124936 124762 16155 108607 99161 83601 48950 22117 34651 19381 18798 14087 1260 26833 22169 20591 4361 4664 3363 2759 9446 3060 6386 171
shrinkage=0.1


Tree=20
num_leaves=31
num_cat=0
split_feature=0 0 3 3 2 1 0 1 0 1 0 0 0 1 1 1 0 1 1 0 0 1 1 0 1 0 1 0 3 1
split_gain=122.09083793212257 1.3335669927442737 0.21694959193227703 0.14683225713096704 0.21158436366107658 0.14435139673880926 0.13542408072263612 0.33811183890401608 0.12695631367253313 0.12084183360270373 0.18697967819293382 0.12059856324521201 0.15393863285430776 0.15942854428083075 0.11531417098218633 0.14350194174344288 0.11154904945218513 0.12959792143135385 0.10269179561287167 0.10956743013014025 0.084455433682228076 0.2059869104612968 0.084309932086990225 0.082312100027527535 0.21114293664127182 0.20924459728120759 0.39913251086376267 0.54773594639101475 0.31455957047810168 0.18330823678168606
threshold=65571.500000000015 2420.5000000000005 2417.5000000000005 2420.5000000000005 2423.5000000000005 2417.5000000000005 2426.5000000000005 2433.5000000000005 2452.5000000000005 2446.5000000000005 2444.5000000000005 2418.5000000000005 2417.5000000000005 2416.5000000000005 2441.5000000000005 2434.5000000000005 2416.5000000000005 2415.5000000000005 2447.5000000000005 2448.5000000000005 2436.5000000000005 2435.5000000000005 2451.5000000000005 2431.5000000000005 2429.5000000000005 2429.5000000000005 2427.5000000000005 2428.5000000000005 2427.5000000000005 2430.5000000000005
decision_type=2 2 2 2 2 2 2 2 2 2 2 2 2 2 2 2 2 2 2 2 2 2 2 2 2 2 2 2 2 2
left_child=1 5 -3 4 -4 11 -5 23 9 10 14 12 16 -14 15 -9 -1 -18 19 -11 -17 -22 -10 24 25 26 27 -8 -27 -25
right_child=-2 2 3 6 -6 -7 7 8 22 18 -12 -13 13 -15 -16 20 17 -19 -20 -21 21 -23 -24 29 -26 28 -28 -29 -30 -31
leaf_value=0.00093843273354234091 -0.0025537649550104874 0.0053945000023186323 0.0019930788188658143 0.0015930732410529278 0.0032181182535996646 0.0028591977565270055 0.0021375027426428664 0.00076057642087596429 0.0045332663965021716 0.0011804662971341639 0.0021679100331626496 0.0050116867581313758 0.00093900549120363042 0.0035815590044927241 0.0014665505811372319 0.0030389560879950143 0.0068643450538306101 0.0039469469479564484 0.0015996047956425305 -0.00058374704010978281 -0.00077548106706858317 0.001874891988220038 0.0023325253410383042 0.0045613333947629748 0.0012062660975134857 0.0056731865714966002 0.00091029568161362967 0.0052274287685733258 0.0025773515907691886 0.0023550605401639877
leaf_count=90 107047 171 15496 26812 1551 6184 10759 1222 197 2832 10174 590 395 541 14832 604 200 638 11402 402 297 23173 1496 414 2404 380 2516 606 2408 4167
internal_value=0 0.019123269711536345 0.018348709607623845 0.018303333254424268 0.021045374701638371 0.031167150280766207 0.0179041464217073 0.018490192640154546 0.017337173495609457 0.017114295080476093 0.017850125559305076 0.03765650264724707 0.033712503253208639 0.024663787992053546 0.016879332446093583 0.018177382726274959 0.042839224680408169 0.046432232763503618 0.014585342856777301 0.0096116703680916449 0.018713999739106178 0.018413529408660735 0.025886068074422463 0.021738134578946456 0.02082391569816865 0.022087462208834355 0.020499616276038957 0.023022625122708289 0.029993089681263664 0.025544486186253823
internal_count=250000 142953 134315 134144 17047 8638 117097 90285 66631 64938 50302 2454 1864 936 40128 25296 928 838 14636 3234 24074 23470 1693 23654 19073 16669 13881 11365 2788 4581
shrinkage=0.1


Tree=21
num_leaves=31
num_cat=0
split_feature=0 0 3 1 0 0 1 0 0 1 1 0 1 1 0 0 3 1 0 1 2 1 0 1 1 1 1 1 1 0
split_gain=98.893578060998124 1.080189339963205 0.17572920004814563 0.12780206151471418 0.14508603343726145 0.1184593471258335 0.10661473830374035 0.095101832411700116 0.15586183013701493 0.10840133204177249 0.1452495778738836 0.16641341676737653 0.43068139499765579 0.11654283625327366 0.43487431682383137 0.21192520289217143 0.42765253528017411 0.097993370790410594 0.14424925308602798 0.089899826010999551 0.08205231993490969 0.081452129389913974 0.14339999018597593 0.17700993264175457 0.079388527347531213 0.075803045127792623 0.073789071046029164 0.20676772407878552 0.13270573396824137 0.27174539864133662
threshold=65571.500000000015 2420.5000000000005 2417.5000000000005 2420.5000000000005 2421.5000000000005 2419.5000000000005 2453.5000000000005 2447.5000000000005 2451.5000000000005 2443.5000000000005 2441.5000000000005 2427.5000000000005 2426.5000000000005 2427.5000000000005 2428.5000000000005 2429.5000000000005 2427.5000000000005 2432.5000000000005 2432.5000000000005 2442.5000000000005 2420.5000000000005 2429.5000000000005 2431.5000000000005 2430.5000000000005 2431.5000000000005 2418.5000000000005 2436.5000000000005 2437.5000000000005 2438.5000000000005 2439.5000000000005
decision_type=2 2 2 2 2 2 2 2 2 2 2 2 2 2 2 2 2 2 2 2 2 2 2 2 2 2 2 2 2 2
left_child=1 5 25 4 -4 20 7 9 -9 10 11 -5 -13 14 -14 -15 -17 18 21 -12 -1 -18 -23 -24 -20 -3 -19 -28 29 -29
right_child=-2 2 3 6 -6 -7 -8 8 -10 -11 19 12 13 15 -16 16 17 26 24 -21 -22 22 23 -25 -26 -27 27 28 -30 -31
leaf_value=0.0031384446536518555 -0.0022983884781358904 0.0038061735116117481 0.0018295036788683245 0.0015285895038818532 0.002895359839762092 0.0024472024956620677 0.0043887594738921624 0.0012311678799885001 0.0019752549675971847 0.0019809064255707468 0.0011350965829221432 0.003892969335559977 0.0018532220274179233 0.00081926593941933964 0.0047470055355153208 0.0051058682047999179 0.0023196161959662866 0.0012803615136029998 0.0051996667889073365 0.00162166278319382 0.0071357559047701847 0.0010856396217123828 0.0040838579522904312 0.0017222788521402384 0.0027343036366666283 0.0090814065007461409 0.00267265275452429 0.0014467755170719202 0.0017458818467969166 -0.00089525917743202884
leaf_count=4119 107047 137 7676 40662 1532 4467 139 12873 3603 9160 8981 971 3781 2516 602 380 2408 4664 148 6579 52 2404 413 1371 1112 34 2058 3298 16230 583
internal_value=0 0.017210942419174067 0.016513838301180892 0.016472999579747596 0.020068376670450482 0.028050435312002627 0.016208014049146388 0.016177184288615479 0.01393886102520606 0.01651764102450172 0.016213595743655281 0.016735734644644257 0.018108691334692412 0.017626962579473524 0.02250679824561137 0.017057897268187582 0.01769392734598059 0.017328433774599163 0.020434683274668505 0.013408240071317277 0.031882792225556802 0.018561841886935809 0.015897218700975404 0.022689896750348309 0.030238859301243794 0.048550501739475546 0.016419005232410636 0.017179625030297681 0.01620267089792506 0.010949573541709343
internal_count=250000 142953 134315 134144 9208 8638 124936 124797 16476 108321 99161 83601 42939 41968 4383 37585 35069 34689 7856 15560 4171 6596 4188 1784 1260 171 26833 22169 20111 3881
shrinkage=0.1


Tree=22
num_leaves=31
num_cat=0
split_feature=0 0 3 0 1 1 3 2 0 1 0 0 1 1 0 1 2 1 1 1 0 1 0 0 0 0 0 1 1 0
split_gain=80.103798551784081 0.87495328790699745 0.1423406424475786 0.10756568962779678 0.15356892108497178 0.15702575289639231 0.10585752002425508 0.17688628501502368 0.097877195844187526 0.23071977205993477 0.09086456920545416 0.090354753675873534 0.10497432666739814 0.08800553761561325 0.086912862694383364 0.14808927150991202 0.086819767838070661 0.078641832727170069 0.15607006650649802 0.072393038929320142 0.13079826156700847 0.066951614415970084 0.22011367628758555 0.062983505011210639 0.23089180368397066 0.11057602751126172 0.070982847803327864 0.10451911365506072 0.061400461547584773 0.059636199216462238
threshold=65571.500000000015 2420.5000000000005 2417.5000000000005 2417.5000000000005 2416.5000000000005 2417.5000000000005 2420.5000000000005 2423.5000000000005 2426.5000000000005 2433.5000000000005 2454.5000000000005 2416.5000000000005 2415.5000000000005 2434.5000000000005 2436.5000000000005 2435.5000000000005 2420.5000000000005 2437.5000000000005 2436.5000000000005 2424.5000000000005 2425.5000000000005 2438.5000000000005 2439.5000000000005 2446.5000000000005 2445.5000000000005 2451.5000000000005 2442.5000000000005 2442.5000000000005 2418.5000000000005 2427.5000000000005
decision_type=2 2 2 2 2 2 2 2 2 2 2 2 2 2 2 2 2 2 2 2 2 2 2 2 2 2 2 2 2 2
left_child=1 3 28 11 -5 16 7 -4 19 29 13 -1 -13 -11 -15 -16 -6 18 -17 20 -8 22 -19 24 26 -25 -23 -28 -3 -10
right_child=-2 2 6 4 5 -7 8 -9 9 10 -12 12 -14 14 15 17 -18 21 -20 -21 -22 23 -24 25 -26 -27 27 -29 -30 -31
leaf_value=0.00053074444296740818 -0.0020685496116958496 0.0034255561304715027 0.0016134815175681586 0.00049673365193784503 0.00339997149972108 0.0023089526195477269 0.0013135724310785316 0.0027335778230252795 0.0014947688150352548 0.0005564828066726568 0.0036854578431541256 0.0058640660651843582 0.0032384076409837505 0.0026070245234122791 -0.00082596904909739647 0.00088458480509143677 0.0075838979843592521 0.0013020976413483285 0.0024053874730872267 0.0010109444247099703 0.0023736061199871117 0.0015871977137928667 -0.00080573312112264153 0.0011524055637741326 0.0023589046459666502 0.001769316868408281 0.0010784900226787685 0.0015286949467157988 0.0081732656271541054 0.0018594788391122663
leaf_count=90 107047 137 15496 401 1073 6184 18321 1551 6011 1222 174 200 638 604 297 1004 52 3298 2058 7248 1243 14718 583 15647 2825 3568 10493 10140 34 17643
internal_value=0 0.01548984843631453 0.01486245475789354 0.025245391608011144 0.024021121961250148 0.025066486305465801 0.014825699909841908 0.017153920551419219 0.014486757176236703 0.014984981216271584 0.014032516850748196 0.035416856022372413 0.038650563719819529 0.013972763346685398 0.01413026310928892 0.014018679674578649 0.035933618259102025 0.014121528493284383 0.019067310505964139 0.012809069668607693 0.013809217191964184 0.013874368542200276 0.009854613642261454 0.014146199818300405 0.014889418298699771 0.012669587343269118 0.014194206039874513 0.012997412963724956 0.043695450880924205 0.017667979996147665
internal_count=250000 142953 134315 8638 7710 7309 134144 17047 117097 90285 66631 928 838 66457 65235 64631 1125 64334 3062 26812 19564 61272 3881 57391 38176 19215 35351 20633 171 23654
shrinkage=0.1


Tree=23
num_leaves=31
num_cat=0
split_feature=0 0 1 0 0 1 1 0 1 1 2 0 0 1 1 1 0 1 0 0 3 1 0 1 0 0 1 1 1 0
split_gain=64.884078173894963 0.70871225077594957 0.1218006415882158 0.13345929113893362 0.087128270812517172 0.12439085943528028 0.12719086308846528 0.07318733561577373 0.085029218122990136 0.071692970654762433 0.070324005613040974 0.068589778625515407 0.064015990027197489 0.11343686725433066 0.077779276075116144 0.09875828164153333 0.11503214522990035 0.093655936806777973 0.35055035605022233 0.18374154221421435 0.33960720192298499 0.09279671997342831 0.78744695642516227 0.10396368155839264 0.091487250661858255 0.070417026485307677 0.26605370556467389 0.088982240346232588 0.064223093479049531 0.085945484943964701
threshold=65571.500000000015 2420.5000000000005 2420.5000000000005 2421.5000000000005 2417.5000000000005 2416.5000000000005 2417.5000000000005 2416.5000000000005 2415.5000000000005 2453.5000000000005 2420.5000000000005 2422.5000000000005 2447.5000000000005 2449.5000000000005 2443.5000000000005 2441.5000000000005 2426.5000000000005 2427.5000000000005 2428.5000000000005 2429.5000000000005 2427.5000000000005 2423.5000000000005 2424.5000000000005 2422.5000000000005 2423.5000000000005 2427.5000000000005 2426.5000000000005 2425.5000000000005 2429.5000000000005 2431.5000000000005
decision_type=2 2 2 2 2 2 2 2 2 2 2 2 2 2 2 2 2 2 2 2 2 2 2 2 2 2 2 2 2 2
left_child=1 4 3 -3 7 -6 10 -1 -9 12 -7 -5 14 -14 15 16 21 18 25 -19 -21 22 23 24 -4 27 -27 -18 -22 -30
right_child=-2 2 9 11 5 6 -8 8 -10 -11 -12 -13 13 -15 -16 -17 17 19 -20 20 28 -23 -24 -25 -26 26 -28 -29 29 -31
leaf_value=0.0004776706700507733 -0.0018616946691527164 0.0015146174603480158 0.0013188754899755828 0.0023320445673518171 0.00044706008689291657 0.0030599744127436782 0.0020780573980129936 0.0052776599684195204 0.0029145671987348492 0.0035813378234782179 0.0068255080792913687 0.0048183627770147014 0.00091972217848167398 0.0014601713033411774 0.0016157376474671436 0.0010798574149587167 0.0021304160231748249 0.00055139155718506006 0.0040446013164838947 0.0044093333989118242 0.0019017069282831708 0.0010304502754328209 0.0049795353662537411 0.00084115293089841387 0.0023838663412347567 0.003340712503633833 0.0014819519732101286 0.0011567454640866333 0.00079112743662462814 0.0014126391304742703
leaf_count=90 107047 7787 13228 1472 401 1073 6184 200 638 139 52 120 10207 6269 9160 15560 1164 2516 606 380 2408 15270 583 4711 859 967 3781 4847 2404 29877
internal_value=0 0.013940863744357695 0.013376209398893345 0.016851795569459781 0.022720853141329683 0.021619010065858819 0.022559838101798381 0.031875174382580085 0.034785511014790792 0.013115295629493472 0.032340256984733667 0.025194554501353533 0.013090014305359427 0.011253591830614003 0.013369340536597191 0.013111795665252963 0.013542337516277944 0.014529265382375403 0.017044704818529776 0.013768643613268194 0.014360873102530237 0.012148146322792314 0.013600725634238624 0.012478187720210154 0.013838167017844127 0.015726627628025857 0.01860515853009391 0.013452918640666165 0.014035169424498945 0.013663544810128421
internal_count=250000 142953 134315 9379 8638 7710 7309 928 838 124936 1125 1592 124797 16476 108321 99161 83601 48950 11365 37585 35069 34651 19381 18798 14087 10759 4748 6011 34689 32281
shrinkage=0.1


Tree=24
num_leaves=31
num_cat=0
split_feature=0 0 3 1 0 0 1 0 0 1 1 0 0 1 0 1 0 1 0 1 0 1 0 1 1 0 1 1 1 0
split_gain=52.556099382176967 0.5740569168152625 0.11019842012820291 0.074622316063177152 0.092523645326276327 0.073560394090127712 0.058345702155172319 0.12073593575314945 0.075542593928162205 0.085304118348648927 0.070180477991559354 0.088749656508409588 0.061602927579837541 0.088605771415011247 0.093176044828613414 0.083356715027154138 0.11879295770757103 0.075243840483456559 0.097216785342538081 0.068932289005348757 0.63783205236708884 0.084210564975871982 0.074104659634160353 0.064304726700939674 0.05578937188838029 0.053885536887518626 0.093475679345889573 0.067937313263029209 0.051316797893640853 0.14142466924586516
threshold=65571.500000000015 2420.5000000000005 2417.5000000000005 2420.5000000000005 2421.5000000000005 2419.5000000000005 2452.5000000000005 2453.5000000000005 2452.5000000000005 2446.5000000000005 2447.5000000000005 2448.5000000000005 2444.5000000000005 2441.5000000000005 2426.5000000000005 2432.5000000000005 2432.5000000000005 2424.5000000000005 2425.5000000000005 2423.5000000000005 2424.5000000000005 2422.5000000000005 2423.5000000000005 2431.5000000000005 2451.5000000000005 2446.5000000000005 2445.5000000000005 2444.5000000000005 2436.5000000000005 2438.5000000000005
decision_type=2 2 2 2 2 2 2 2 2 2 2 2 2 2 2 2 2 2 2 2 2 2 2 2 2 2 2 2 2 2
left_child=1 5 -3 4 -4 -1 7 8 9 12 11 -11 13 14 17 16 -16 18 19 20 21 22 -5 -18 -10 27 -27 -14 -17 -30
right_child=-2 2 3 6 -6 -7 -8 -9 24 10 -12 -13 25 -15 15 28 23 -19 -20 -21 -22 -23 -24 -25 -26 26 -28 -29 29 -31
leaf_value=0.0023468742297287253 -0.0016755251463580895 0.0037408152091233569 0.0013337434162191595 0.0011869879169487698 0.0021849052933401334 0.0017628907537181283 0.0022080734782869947 -0.0015031518457657525 0.0035594654208977419 0.0007320902660839187 0.0010625080880394271 -0.00085570207828006154 0.0013757496959059812 0.00095359673531544246 0.0013944069739447802 0.00088765887351033833 0.0043524885961949075 0.00080680478902575038 0.0020332007313874118 0.00085358995841400384 0.0044815818592334024 0.00075703765804239933 0.0021454795964096596 0.0021336614219026702 0.0016755771652866261 -1.0030035876042531e-05 0.0013650224541632327 0.0020376453134197461 0.0021649688870281447 0.0011826705127427266
leaf_count=4171 107047 171 7676 13228 1532 4467 550 168 197 2832 11402 402 4830 14832 20857 4664 148 7248 1243 6779 583 4711 859 1112 778 620 2440 2284 1578 20591
internal_value=0 0.012546776830733969 0.012038587922610484 0.01200624808350091 0.014753572078477138 0.020448767244557266 0.011803765537671516 0.011758323663956681 0.011794555880211985 0.01172519336109811 0.0094588715575395447 0.0053472089434529468 0.012030605405596929 0.011788476146564548 0.012188103095182883 0.01307633820895269 0.01451369787522378 0.010933330972616954 0.011691188603253001 0.011280617606283976 0.012240652915832885 0.011230368779218975 0.012454350022915919 0.023942855305069805 0.020562191719341521 0.014373195277263363 0.010864170314958113 0.015882559402179596 0.011891599874106878 0.012525909611543229
internal_count=250000 142953 134315 134144 9208 8638 124936 124386 124218 123243 14636 3234 108607 98433 83601 48950 22117 34651 27403 26160 19381 18798 14087 1260 975 10174 3060 7114 26833 22169
shrinkage=0.1


Tree=25
num_leaves=31
num_cat=0
split_feature=0 0 3 0 1 1 3 2 0 1 2 0 1 1 0 1 1 0 1 1 0 1 0 3 0 1 1 1 1 1
split_gain=42.570447543409429 0.4649859843951738 0.089260712843874046 0.06549490318071971 0.10516445560012544 0.094902963558997744 0.061579700594329267 0.1441085837860121 0.059281730408507149 0.068873660501125644 0.057151365152403488 0.056024823165595095 0.13685610432589357 0.069694274417178903 0.071537695368890653 0.11890976190823466 0.05407600780155164 0.054005694358248313 0.11971299392394852 0.11708301603640647 0.10522496555603578 0.22185155432897963 0.28394571772344701 0.16716986449728977 0.057037723880358993 0.21550348847403389 0.072075574855459457 0.050912620862733377 0.048326401537767794 0.10779554998150775
threshold=65571.500000000015 2420.5000000000005 2417.5000000000005 2417.5000000000005 2416.5000000000005 2417.5000000000005 2420.5000000000005 2423.5000000000005 2416.5000000000005 2415.5000000000005 2420.5000000000005 2426.5000000000005 2433.5000000000005 2434.5000000000005 2436.5000000000005 2435.5000000000005 2453.5000000000005 2431.5000000000005 2430.5000000000005 2429.5000000000005 2429.5000000000005 2427.5000000000005 2428.5000000000005 2427.5000000000005 2427.5000000000005 2426.5000000000005 2425.5000000000005 2418.5000000000005 2437.5000000000005 2436.5000000000005
decision_type=2 2 2 2 2 2 2 2 2 2 2 2 2 2 2 2 2 2 2 2 2 2 2 2 2 2 2 2 2 2
left_child=1 3 27 8 -5 10 7 -4 -1 -10 -6 -8 17 -14 -15 -16 28 19 -19 20 21 22 24 -22 26 -26 -13 -3 29 -17
right_child=-2 2 6 4 5 -7 11 -9 9 -11 -12 12 13 14 15 16 -18 18 -20 -21 23 -23 -24 -25 25 -27 -28 -29 -30 -31
leaf_value=0.00019521617518025231 -0.0015079727621074429 0.0025071387406632199 0.0011661525313730698 0.00016810357765402036 0.0025192893853878775 0.0016776725954730206 0.00092778211144330298 0.0021771573124523347 0.0045152062104836087 0.0023884228131618073 0.0059138849484260013 0.0017779338282599263 0.00027080420787243761 0.0021162922650165457 -0.00097340193090473051 0.00056609645628587484 0.0030023961956266304 0.0032291776257465255 0.0014462288020773006 0.00057257436582256512 0.0038289592029439744 0.00035681179727921287 0.0035007003893586124 0.0015720954223220479 0.0028672005409321874 0.0011943161141377166 0.00090163056717895511 0.0068303956736683186 0.0010085037846423656 0.0018299986695848253
leaf_count=90 107047 137 15496 401 1073 6184 26812 1551 200 638 52 1164 1222 604 297 1004 139 414 4167 2404 380 2516 606 2408 967 3781 4847 34 61307 2058
internal_value=0 0.011292100025593653 0.010834730066426903 0.01840389049392915 0.017448581313126571 0.018313649827316737 0.010805624212444546 0.012581375196913503 0.026340780347364388 0.028960083063615725 0.026761950959787808 0.01054711009993746 0.010924051784448862 0.010190487098377221 0.010330277461527967 0.01022931430276762 0.010321227089392995 0.012990431618626572 0.0160735971307427 0.012249909350970515 0.01319082329484648 0.012064817487357231 0.013945829023865744 0.018797023658461351 0.012759559700049992 0.015350235977321224 0.010713222823576226 0.033667336362386828 0.010278680520636171 0.014155774133009584
internal_count=250000 142953 134315 8638 7710 7309 134144 17047 928 838 1125 117097 90285 66631 65409 64805 64508 23654 4581 19073 16669 13881 11365 2788 10759 4748 6011 171 64369 3062
shrinkage=0.1


Tree=26
num_leaves=31
num_cat=0
split_feature=0 0 1 0 0 1 1 0 0 1 2 0 1 1 0 1 1 0 1 0 1 1 0 0 3 1 0 0 1 1
split_gain=34.482058500529639 0.37663878141755802 0.072439737632889134 0.086387342740112061 0.053050876219236098 0.085183199666635012 0.076871419781541217 0.050539995216957401 0.048018226158012101 0.055787647809454444 0.046292603928223985 0.043749424848597229 0.064861955515244318 0.060165630105900314 0.059202931213207743 0.35890315692763863 0.068171810193159155 0.053366636854791594 0.066252943352679949 0.068302636028676034 0.21827446216484603 0.051801189394486968 0.23285165016870302 0.12516914698971515 0.22030845324007986 0.049762713183488128 0.045583214557589638 0.043647314460687481 0.075715303093636027 0.055029264708065684
threshold=65571.500000000015 2420.5000000000005 2420.5000000000005 2421.5000000000005 2417.5000000000005 2416.5000000000005 2417.5000000000005 2422.5000000000005 2416.5000000000005 2415.5000000000005 2420.5000000000005 2452.5000000000005 2446.5000000000005 2451.5000000000005 2449.5000000000005 2448.5000000000005 2449.5000000000005 2444.5000000000005 2441.5000000000005 2427.5000000000005 2426.5000000000005 2427.5000000000005 2428.5000000000005 2429.5000000000005 2427.5000000000005 2442.5000000000005 2450.5000000000005 2446.5000000000005 2445.5000000000005 2444.5000000000005
decision_type=2 2 2 2 2 2 2 2 2 2 2 2 2 2 2 2 2 2 2 2 2 2 2 2 2 2 2 2 2 2
left_child=1 4 3 -3 8 -6 10 -5 -1 -10 -7 12 17 -13 -14 -16 26 18 19 -4 -21 22 -22 -23 -25 -20 -17 29 -29 -19
right_child=-2 2 11 7 5 6 -8 -9 9 -11 -12 13 14 -15 15 16 -18 27 25 20 21 23 -24 24 -26 -27 -28 28 -30 -31
leaf_value=0.00017569406012925688 -0.0013571754300173433 0.0011059357574972478 0.00089383515860309598 0.0017535008833588002 0.00015129332596300967 0.0022673605688559835 0.0015099053423115124 0.0038877475332660845 0.004063685488089888 0.0021495807255101809 0.0053224965147014459 0.0031026684639863665 0.00049258864554036397 0.0012435639285681966 0.0034301343979356437 0.00058901021016153493 0.0010059916674595706 0.0011373242237190427 0.00060954212178002251 0.0025569413579371353 0.0010748842197896981 0.00032113058399536117 0.0031923861627683597 0.0034460635971072791 0.0010250925832510081 0.00098432047034335596 -0.00034947959161686073 -0.00010987763515025576 0.0011276696289595027 0.0017330305012099906
leaf_count=90 107047 7787 40662 1472 401 1073 6184 120 200 638 52 197 5536 1496 531 3238 4715 4830 8981 971 3781 2516 602 380 34689 5851 616 620 2440 2284
internal_value=0 0.01016288920187567 0.0097512561653690811 0.012431607393310059 0.016563501762466383 0.015703723462121455 0.01648228508207485 0.01914373717890747 0.023706702943133828 0.02606407598981874 0.024085757055733768 0.009550041029884845 0.0094806841218775615 0.014598920777989761 0.0075044809288647499 0.0090731731718791467 0.0075098450790607903 0.0097469994600503825 0.0095216370313206712 0.0098671993265758116 0.010746791590994649 0.010403845403881867 0.013657206515659917 0.010024452514353514 0.010513256790300539 0.007573865089193851 0.0043900768211086114 0.011927370990141944 0.0087692474538640704 0.013285799162901332
internal_count=250000 142953 134315 9379 8638 7710 7309 1592 928 838 1125 124936 123243 1693 14636 9100 8569 108607 98433 83601 42939 41968 4383 37585 35069 14832 3854 10174 3060 7114
shrinkage=0.1


Tree=27
num_leaves=31
num_cat=0
split_feature=0 3 0 1 0 0 0 0 0 1 1 0 0 1 0 1 0 1 1 0 1 1 0 0 3 1 0 1 1 0
split_gain=27.930468009175186 0.30700393635593493 0.058548581954971368 0.044294825203538224 0.058218898205786074 0.041143562297392577 0.034449341857422766 0.11441372585435872 0.055823593124166182 0.053058253949574974 0.03647896465569167 0.034176082777768679 0.032883524148366927 0.031582368885948897 0.075315392768680628 0.049083260203859502 0.2666970225554417 0.029279389043700199 0.069303531040475042 0.055325151341409473 0.1768023366681053 0.041958961685884866 0.18860982710566621 0.1013870033642843 0.17844984036846112 0.042358812474959873 0.091483506861875785 0.052023980964598981 0.042489496128119808 0.078264859648240148
threshold=65571.500000000015 2418.5000000000005 2419.5000000000005 2420.5000000000005 2421.5000000000005 2454.5000000000005 2446.5000000000005 2445.5000000000005 2451.5000000000005 2450.5000000000005 2445.5000000000005 2422.5000000000005 2447.5000000000005 2447.5000000000005 2448.5000000000005 2448.5000000000005 2449.5000000000005 2441.5000000000005 2442.5000000000005 2427.5000000000005 2426.5000000000005 2427.5000000000005 2428.5000000000005 2429.5000000000005 2427.5000000000005 2432.5000000000005 2432.5000000000005 2431.5000000000005 2429.5000000000005 2431.5000000000005
decision_type=2 2 2 2 2 2 2 2 2 2 2 2 2 2 2 2 2 2 2 2 2 2 2 2 2 2 2 2 2 2
left_child=1 2 -1 4 -3 6 7 17 10 -10 -8 -6 -12 14 -14 16 -15 19 -19 -5 -21 22 -22 -23 -25 26 28 -28 -26 -30
right_child=-2 3 -4 5 11 -7 8 -9 9 -11 12 -13 13 15 -16 -17 -18 18 -20 20 21 23 -24 24 25 -27 27 -29 29 -31
leaf_value=0.0017301614168865882 -0.001221457887015609 0.00097182269905175464 0.0012439524830624034 0.00080445163336328822 0.001530310953500236 0.0023961492496771685 -9.8889622308343943e-05 0.0015076062439266756 0.002161375495596364 0.00095219560732125847 0.0010454621426247957 0.0033464533143547455 0.0005340859613213924 0.00060094173316019718 -0.00092024124590666474 0.00056840146551392055 0.0030871210958667785 0.00054858815881670482 0.00093005049381751355 0.002301247320717288 0.00096739581085059729 0.00028901755596629723 0.0028731475113799062 0.0031014572085037227 0.0013123767230139478 0.00086279146862830653 0.0036689026446921412 0.0016731633022181924 0.00041280760146020142 0.0012870303266489193
leaf_count=4171 107047 6253 6097 40662 1384 174 620 2825 410 3158 2154 112 3118 2302 402 6520 531 8981 10140 971 3781 2516 602 380 2408 26833 148 1112 2404 1784
internal_value=0 0.009146600520208166 0.014414570840003032 0.0087389318369082165 0.011058924171281816 0.0085950371980606389 0.0085736062883297239 0.0087978119359950757 0.0073420562756242912 0.010911428315868492 0.0065281290410367466 0.016662788059539722 0.0068382744895373378 0.0062331621640412107 0.0036799517819417816 0.0071940624682206179 0.010669358018352804 0.0086251511911000795 0.0075088029118235292 0.0088804794221983546 0.0096721125757769245 0.0093634609878976496 0.012291485928357103 0.0090220073943354899 0.009461931230327179 0.0092258332353094032 0.011268087801988855 0.019075834505280193 0.0097766140533310196 0.007852081011581304
internal_count=250000 142953 10268 132685 7749 124936 124762 105547 19215 3568 15647 1496 15027 12873 3520 9353 2833 102722 19121 83601 42939 41968 4383 37585 35069 34689 7856 1260 6596 4188
shrinkage=0.1


Tree=28
num_leaves=31
num_cat=0
split_feature=0 3 0 3 2 0 1 1 0 1 1 0 1 0 0 1 1 1 0 1 1 0 0 1 0 1 1 0 3 0
split_gain=22.623680450154502 0.24867310852521562 0.04742434094437975 0.037872827983587598 0.11488311093605663 0.036062948110619608 0.082008353315075944 0.058501368623629091 0.056488059159407022 0.097656794539765723 0.040394218241480484 0.09086555220217063 0.03713043554866724 0.098553789769817435 0.054313402039264158 0.03825957983109074 0.087314394364633119 0.061541079756031625 0.17829217730458305 0.041491293475529378 0.039661627755081308 0.057999660498656742 0.038333635274688582 0.05094865256594594 0.037048443069369164 0.097267876346553539 0.075628876631819608 0.061646131238961122 0.12011738419014817 0.14606115503005479
threshold=65571.500000000015 2418.5000000000005 2419.5000000000005 2420.5000000000005 2423.5000000000005 2426.5000000000005 2433.5000000000005 2434.5000000000005 2436.5000000000005 2435.5000000000005 2424.5000000000005 2425.5000000000005 2452.5000000000005 2453.5000000000005 2452.5000000000005 2437.5000000000005 2436.5000000000005 2438.5000000000005 2439.5000000000005 2446.5000000000005 2447.5000000000005 2448.5000000000005 2444.5000000000005 2441.5000000000005 2431.5000000000005 2430.5000000000005 2429.5000000000005 2429.5000000000005 2426.5000000000005 2428.5000000000005
decision_type=2 2 2 2 2 2 2 2 2 2 2 2 2 2 2 2 2 2 2 2 2 2 2 2 2 2 2 2 2 2
left_child=1 2 -1 4 -3 10 24 -8 -9 -10 11 -5 13 14 15 16 -11 18 -17 22 21 -21 23 -19 26 -26 27 28 29 -7
right_child=-2 3 -4 5 -6 6 7 8 9 12 -12 -13 -14 -15 -16 17 -18 19 -20 20 -22 -23 -24 -25 25 -27 -28 -29 -30 -31
leaf_value=0.001557145191057676 -0.0010993121355669516 0.00084269356745993835 0.0011195571987773069 0.00068374980449434374 0.0017496371035182826 0.0009380420834983489 5.4935676053796158e-05 0.0017158744418967926 -0.0010648501870268424 0.00032069845306642982 0.00046351748307210222 0.0015672737349391775 0.0015707671338209724 -0.0016732630125049087 0.0014926073079896535 0.00062271841933850389 0.0014582104377374038 0.00086814338485852443 -0.0012743297962927889 0.00045536347962435919 0.00069257632341279511 -0.00082821695592660144 0.00096936152587807748 0.00061174106678704102 0.0026744720814830085 0.0010673349004977966 0.00037152675428112113 0.0014006028157982511 0.00025919741444394706 0.0025262415168545264
leaf_count=4171 107047 14037 6097 18321 1551 10759 1222 604 297 1004 7248 1243 550 168 975 3298 2058 16230 583 2832 11402 402 10174 14832 414 4167 2404 2788 2510 612
internal_value=0 0.0082319406746628448 0.012973113200576088 0.00786503891865367 0.0093293408630297243 0.0076701104515799288 0.0079725332538789408 0.0074046809721094948 0.007532755185085443 0.0074430383832517705 0.0066517514069146227 0.0073988454329249912 0.0075263332832357878 0.0074559787411690994 0.0075196828679544303 0.0074047225839492066 0.010852313122880592 0.0072280532580541405 0.0033774569858474137 0.0074955246951323605 0.0060490579841762935 0.0029580894983257671 0.008008922861335508 0.007457121335934268 0.0095721174843084612 0.012125771424001478 0.0089587746070613726 0.0097149922035306962 0.008853137318497982 0.010235207467458641
internal_count=250000 142953 10268 132685 15588 117097 90285 66631 65409 64805 26812 19564 64508 63958 63790 62815 3062 59753 3881 55872 14636 3234 41236 31062 23654 4581 19073 16669 13881 11371
shrinkage=0.1


Tree=29
num_leaves=31
num_cat=0
split_feature=0 1 0 0 1 2 0 0 1 0 1 1 0 1 0 1 2 0 1 0 0 1 1 1 0 1 1 0 1 0
split_gain=18.325179308602468 0.20559854174112058 0.064508215907817412 0.051107289842102999 0.030718851620219922 0.029521648825695523 0.023838108300450855 0.087031157910228529 0.044409645274264165 0.055501709422550616 0.033638056182213882 0.023093233494289434 0.022732188136600495 0.073780351181230164 0.024951243996138017 0.072037605020469631 0.058943866675373047 0.035387476683895219 0.043519475060577982 0.019824272499576245 0.03019049467428106 0.24240393495368723 0.019322327007000872 0.051298133158380277 0.040136409740462398 0.14097132953096914 0.03240388109207637 0.52738196606744769 0.055882057240585037 0.066364080995136687
threshold=65571.500000000015 2420.5000000000005 2419.5000000000005 2422.5000000000005 2453.5000000000005 2422.5000000000005 2446.5000000000005 2445.5000000000005 2449.5000000000005 2450.5000000000005 2445.5000000000005 2418.5000000000005 2416.5000000000005 2415.5000000000005 2418.5000000000005 2417.5000000000005 2420.5000000000005 2417.5000000000005 2416.5000000000005 2447.5000000000005 2449.5000000000005 2448.5000000000005 2441.5000000000005 2442.5000000000005 2427.5000000000005 2426.5000000000005 2423.5000000000005 2424.5000000000005 2422.5000000000005 2423.5000000000005
decision_type=2 2 2 2 2 2 2 2 2 2 2 2 2 2 2 2 2 2 2 2 2 2 2 2 2 2 2 2 2 2
left_child=1 2 12 5 6 -4 7 22 9 10 -8 -7 -1 -14 17 16 -16 -15 -19 -12 -21 -22 24 -24 26 -26 27 28 29 -3
right_child=-2 4 3 -5 -6 11 8 -9 -10 -11 19 -13 13 14 15 -17 -18 18 -20 20 21 -23 23 -25 25 -27 -28 -29 -30 -31
leaf_value=-0.00017060566533845493 -0.00098938086613090115 0.00069289796189870515 0.00088399152284097558 0.0030075810048306628 0.0021811088751518179 0.0033874194332076018 -0.00018593678907264885 0.0012599094255942285 0.00080990264618809916 -0.00044062911726770303 0.00084397965891830069 0.0012804896151189335 0.0032993500417064937 0.0016058916428877683 0.0022121744108076699 0.0012238469470315378 0.0059058180255453776 -0.00016119503445632288 0.0012214807629279483 0.00036551364056420084 0.0027091511730717639 0.0004040116067928972 0.00043255504781599329 0.00076074460793433205 0.0019766642660543573 0.0007578918520403092 0.00056163185292429428 0.0037024418400873351 0.0003503520840736556 0.0015999498487500169
leaf_count=90 107047 13228 12252 120 139 54 620 2825 6269 616 2154 1420 202 638 535 1725 47 393 541 5822 531 3238 8981 10140 971 41968 21281 583 4711 859
internal_value=0 0.0074087462897658458 0.01056677400739315 0.0095282316659696126 0.0069533276323052971 0.009348593799723021 0.0069367789272050612 0.0071234281739511723 0.0059133883793447122 0.0048578638139917868 0.0053193858060129875 0.013576769830676091 0.014014306316036233 0.014360994055551026 0.013390701148689918 0.015484276928399968 0.025104583079224176 0.010318258830756656 0.0063969104421805895 0.0056983408741100748 0.0050826495656569317 0.0072877389619707108 0.0069728396325359331 0.0060659625731159777 0.007180258159266103 0.0078545251976528986 0.0064682333606509192 0.0074036650364257975 0.0064850088554582559 0.0074820834833633368
internal_count=250000 142953 18017 13846 124936 13726 124797 105547 19250 12981 12365 1474 4171 4081 3879 2307 582 1572 934 11745 9591 3769 102722 19121 83601 42939 40662 19381 18798 14087
shrinkage=0.1


Tree=30
num_leaves=31
num_cat=0
split_feature=0 0 3 1 0 1 1 0 0 1 1 3 2 0 1 0 1 1 0 1 1 0 1 0 1 0 1 0 0 3
split_gain=14.843396653340818 0.16961477095935074 0.057765111742155817 0.044441505685936175 0.029062090965824572 0.062210051627314189 0.040481261904816268 0.031714758646290309 0.031527093283029245 0.036740464703697739 0.024471859362146908 0.024371836679678793 0.093817211559669156 0.025580460947595363 0.064528687526333783 0.073387543812750478 0.042088493162202534 0.040686689538210086 0.03187035055953813 0.092065995745846618 0.029526637330868133 0.076082082939793461 0.029236878315486825 0.44413008346475674 0.028079516964648665 0.06394683810504026 0.024030645286524432 0.12579105661668466 0.076872159210920499 0.12631103620220258
threshold=65571.500000000015 2420.5000000000005 2417.5000000000005 2418.5000000000005 2417.5000000000005 2416.5000000000005 2417.5000000000005 2418.5000000000005 2416.5000000000005 2415.5000000000005 2453.5000000000005 2420.5000000000005 2423.5000000000005 2426.5000000000005 2432.5000000000005 2432.5000000000005 2431.5000000000005 2425.5000000000005 2427.5000000000005 2426.5000000000005 2424.5000000000005 2425.5000000000005 2423.5000000000005 2424.5000000000005 2422.5000000000005 2423.5000000000005 2427.5000000000005 2428.5000000000005 2429.5000000000005 2427.5000000000005
decision_type=2 2 2 2 2 2 2 2 2 2 2 2 2 2 2 2 2 2 2 2 2 2 2 2 2 2 2 2 2 2
left_child=1 4 3 -3 8 -6 7 -7 -1 -10 11 12 -4 20 15 17 -17 -15 -19 -20 21 22 23 24 25 -13 27 -21 -28 -30
right_child=-2 2 10 -5 5 6 -8 -9 9 -11 -12 13 -14 14 -16 16 -18 18 19 26 -22 -23 -24 -25 -26 -27 28 -29 29 -31
